tree
version=v2
num_class=1
num_tree_per_iteration=1
label_index=0
max_feature_idx=8
objective=regression
feature_names=full_sq life_sq timestamp floor max_floor build_year num_room product_type sub_area
feature_infos=[1:637] [0:7478] 6043:6042:6044:6045:6041:6046:6040 3:2:5:4:1:7:6:8:9:12:11:10:14:13:16:15:17:18:19:22:20:21:23:24:25:26:28:31:0:32 9:17:5:12:14:16:22:25:8:10:1:24:15:4:18:19:3:7:6:23:20:13:2:30:21:11:0:40:27:32:28:26:37:48:29:39:33:34 [1931:2016] [0:19] 1:0 73:9:0:22:6:36:84:68:32:54:40:113:2:11:59:13:56:104:52:51:1:30:60:8:5:12:61:79:78:92:38:63:34:100:74:16:102:95:21:10:123:3:25:88:20:121:50:62:57:55:19:47:106:14:116:72:71:39:41:37:114:127:28:98:64:42:101:4:112:67:126:118:66:91:108:15:26:70:117:80:86:48:105:89:18:97:119:33:107:99:115:130:93:27:65:83:29:134:77:135:49:94:122:24:69:46:43:82:131:35:76:45:53:109:103:129:85:87:17:110:44:96:124:128:90:81:75:7:120:133:23:111:125:141:132:138:31:136:140:144:58:137
tree_sizes=1460 1461 1498 1485 1491 1452 1486 1466 1463 1441 1437 1418 1395 1432 1393 1367 1769 1368 1779 1367 1397 1768 1758 2100 1375 1764 1776 1789 1348 1807 1811 1794 1725 1743 1360 1778 1712 1394 1390 1776 1362 1722 1773 1792 1402 1346 1384 1814 1744 1396 1769 1387 2042 1808 1349 1360 2054 1819 1337 1707 1733 1384 1335 1371 1726 1771 1366 1344 1735 1283 1780 1018 1739 1352 1704 1421 1303 1738 1335 1394 1329 1367 1363 1697 1323 1337 1730 1335 1308 1071 1739 1344 1295 1302 1700 1722 1303 1837 1373 1360 1315 1324 1325 1672 1316 1745 1324 1320 1332 1725 1083 1328 1691 1312 1731 1363 1282 1310 1324 1745 1297 1311 1286 1386 1719 1366 1305 1069 1672 1389 1701 1291 1313 1746 1759 1373 1688 1339 1397 1295 1364 1308 1253 1271 1686 1356 1673 1333 1357 1697

Tree=0
num_leaves=15
num_cat=5
split_feature=0 0 0 8 5 0 8 8 8 8 0 0 0 0
split_gain=9.74443e+16 3.87858e+16 1.53705e+16 1.17995e+16 8.40393e+15 9.22656e+15 6.6634e+15 4.88474e+15 3.15403e+15 3.0958e+15 2.04983e+15 1.83443e+15 1.83054e+15 1.50204e+15
threshold=67.500000000000014 105.50000000000001 49.500000000000007 0 2007.5000000000002 119.50000000000001 1 2 3 4 86.500000000000014 141.50000000000003 82.500000000000014 35.500000000000007
decision_type=2 2 2 5 2 2 5 5 5 5 2 2 2 2
left_child=2 3 9 -2 5 -3 -4 12 -8 -1 -9 -6 -5 -11
right_child=1 4 6 7 11 -7 8 10 -10 13 -12 -13 -14 -15
leaf_value=7428790.8411901658 7807551.3680940578 9084508.9625418186 8020607.4686515545 8507607.8653789908 8653212.2985538095 10675766.489062026 7542226.4889679532 8124498.7597280182 7753180.9520819904 7481056.6816365495 8439805.5150348693 9463800.254776312 9034745.212899372 7597150.3668244844
leaf_count=2568 841 76 759 232 138 70 961 1134 2619 1571 252 35 92 3835
internal_value=0 5.24735e+06 -1.22309e+06 3.94738e+06 1.56431e+07 2.12303e+07 291534 5.44318e+06 -282106 -2.04726e+06 4.54137e+06 1.09279e+07 9.04944e+06 -1.60704e+06
internal_count=15183 2870 12313 2551 319 146 4339 1710 3580 7974 1386 173 324 5406
cat_boundaries=0 5 10 15 20 25
cat_threshold=305185359 1078001920 2236629264 207683840 128 1073746192 673325188 1787101254 41968257 1 1073745920 19021952 713031748 129 1 43173482 256 7340288 2097162 204 34621039 272892161 68158736 3408134 236
shrinkage=1


Tree=1
num_leaves=15
num_cat=5
split_feature=0 0 0 8 5 0 8 8 8 8 0 0 0 5
split_gain=7.90767e+16 3.04763e+16 1.34315e+16 9.30216e+15 6.96669e+15 6.4793e+15 6.30009e+15 2.73156e+15 2.65905e+15 2.54763e+15 2.01407e+15 1.58217e+15 1.41003e+15 1.3438e+15
threshold=70.500000000000014 105.50000000000001 49.500000000000007 0 2006.5000000000002 119.50000000000001 1 2 3 4 141.50000000000003 95.500000000000014 35.500000000000007 2008.5000000000002
decision_type=2 2 2 5 2 2 5 5 5 5 2 2 2 2
left_child=2 3 8 13 5 -3 -4 -8 -1 11 -6 -5 -10 -2
right_child=1 4 6 9 10 -7 7 -9 12 -11 -12 -13 -14 -15
leaf_value=-273664.03275681537 198470.79259930857 1317154.4235294119 279698.57816686941 645501.0521802326 853812.12671979878 2749294.4652542374 -177397.95070399379 23864.22301039302 -222794.89991362073 404209.95240940904 1630703.0477107558 1175277.9731445313 -113333.34496553947 -62489.385997756734
leaf_count=2365 461 68 825 473 149 59 878 2798 1680 1046 43 64 3929 345
internal_value=0 4.89821e+06 -1.06333e+06 3.67234e+06 1.40788e+07 1.98248e+07 317773 -245574 -1.84291e+06 5.06833e+06 1.0278e+07 6.95685e+06 -1.45859e+06 857061
internal_count=15183 2708 12475 2389 319 127 4501 3676 7974 1583 192 537 5609 806
cat_boundaries=0 5 10 15 20 25
cat_threshold=303088239 1079050512 2169504000 73466112 128 1073746192 673341572 1787101254 8413857 1 43140714 256 1048832 2097154 204 34655855 4456768 68158720 2490630 236 1073754128 555877068 704806982 8396928 1
shrinkage=0.1


Tree=2
num_leaves=15
num_cat=6
split_feature=0 0 0 8 5 0 8 8 8 8 8 0 0 0
split_gain=6.4249e+16 2.51014e+16 1.03482e+16 7.66126e+15 5.80802e+15 4.7949e+15 4.71725e+15 3.02922e+15 2.37618e+15 2.27601e+15 1.45159e+15 1.42427e+15 1.33567e+15 1.28639e+15
threshold=68.500000000000014 105.50000000000001 49.500000000000007 0 2008.5000000000002 119.50000000000001 1 2 3 4 5 82.500000000000014 86.500000000000014 145.50000000000003
decision_type=2 2 2 5 2 2 5 5 5 5 5 2 2 2
left_child=2 3 8 -2 5 -3 -4 11 -1 -8 -10 -5 -9 -6
right_child=1 4 6 7 13 -7 9 12 10 -11 -12 -13 -14 -15
leaf_value=-33421.033250513377 80700.010084128298 1176228.2399739583 262994.24680314225 620702.03177944222 705517.42710975069 2276292.1173333335 -126040.03422571799 327560.0720303366 -276347.47270754678 37648.363247380781 -162883.73490844772 1075910.6860677085 586742.78506415139 1431981.8797916668
leaf_count=1177 867 84 691 242 130 75 1299 1037 1513 2412 5284 96 246 30
internal_value=0 4.31953e+06 -979555 3.24875e+06 1.26709e+07 1.69513e+07 251152 4.52186e+06 -1.65896e+06 -198339 -1.88509e+06 7.28441e+06 3.74338e+06 8.4173e+06
internal_count=15183 2807 12376 2488 319 159 4402 1621 7974 3711 6797 338 1283 160
cat_boundaries=0 5 10 15 20 25 30
cat_threshold=36749935 1079050513 2169504000 207618312 128 1744834560 539125900 1786839110 33579649 1 1073745920 19021952 713031748 8388736 1 1073741840 555903630 1787562086 276848768 1 43239023 272630016 7340288 2097434 204 34621162 262400 68158720 2359298 228
shrinkage=0.1


Tree=3
num_leaves=15
num_cat=6
split_feature=0 8 0 0 8 8 0 5 0 8 8 0 8 5
split_gain=5.22209e+16 2.21798e+16 2.24042e+16 7.48752e+15 6.2258e+15 4.12158e+15 3.17334e+15 2.99584e+15 2.08758e+15 1.77239e+15 1.58213e+15 1.48408e+15 1.05202e+15 8.08596e+14
threshold=65.500000000000014 0 114.50000000000001 45.500000000000007 1 2 95.500000000000014 2008.5000000000002 86.500000000000014 3 4 126.50000000000001 5 2005.5000000000002
decision_type=2 5 2 2 5 5 2 2 2 5 5 2 5 2
left_child=3 2 8 10 -3 -5 -6 -4 -2 -7 -1 -9 -12 -8
right_child=1 4 7 5 6 9 13 11 -10 -11 12 -13 -14 -15
leaf_value=-44145.205113924036 537623.97883284406 -33316.009929367596 2749102.0018181819 205290.80149207485 264112.66778729885 -151804.54003925069 799165.62978723412 1008954.3775000001 990229.67606534087 -374.34155778224482 -267662.53762880067 2145482.6806712965 -157024.43180911898 465076.63093999057
leaf_count=1074 447 686 55 822 1402 1028 141 20 132 3037 1100 27 5063 149
internal_value=0 3.6921e+06 8.68793e+06 -931587 2.21556e+06 24735.5 3.2448e+06 2.24812e+07 6.40809e+06 -389482 -1.57737e+06 1.66185e+07 -1.77173e+06 6.27513e+06
internal_count=15183 3059 681 12124 2378 4887 1692 102 579 4065 7237 47 6163 290
cat_boundaries=0 5 10 15 20 25 30
cat_threshold=1610625024 555876480 1786841156 41951393 1 34636362 4718848 89146624 7602176 224 1207963920 539107468 1787101262 8417921 1 34817642 0 70254848 18874378 204 1610617088 555903112 1787562054 276849312 1 34735722 256 1049856 2359296 68
shrinkage=0.1


Tree=4
num_leaves=15
num_cat=7
split_feature=0 0 0 8 5 0 8 8 8 8 8 4 0 0
split_gain=4.24477e+16 1.64545e+16 7.23257e+15 5.32073e+15 4.10636e+15 3.64565e+15 3.53776e+15 1.89093e+15 1.45627e+15 1.44004e+15 1.19903e+15 9.79382e+14 9.72597e+14 9.39932e+14
threshold=70.500000000000014 102.50000000000001 51.500000000000007 0 2008.5000000000002 119.50000000000001 1 2 3 4 5 6 33.500000000000007 145.50000000000003
decision_type=2 2 2 5 2 2 5 5 5 5 5 5 2 2
left_child=2 3 7 -2 5 -3 -4 -1 -5 -8 -9 -10 -12 -6
right_child=1 4 6 8 13 -7 9 10 11 -11 12 -13 -14 -15
leaf_value=-12381.151179686893 54538.861597817267 942614.59016990289 224421.28600727231 617252.49479929393 555342.30570464698 1859147.2566250002 -95846.869054742914 -231052.87769335136 476867.97816417133 41175.814414339366 -211729.51949558125 263214.84254120867 -108411.37427823193 1167179.7135904948
leaf_count=1194 827 103 771 229 154 75 1259 1454 349 1930 1128 941 4739 30
internal_value=0 3.58844e+06 -779348 2.62014e+06 9.86363e+06 1.32879e+07 337183 -1.2986e+06 3.72162e+06 -130505 -1.488e+06 3.24241e+06 -1.28057e+06 6.55098e+06
internal_count=15183 2708 12475 2346 362 178 3960 8515 1519 3189 7321 1290 5867 184
cat_boundaries=0 5 10 15 20 25 30 31
cat_threshold=34636399 1079050496 2169504512 73466112 128 1614811136 674390148 1786839110 33570977 1 272 555901576 1787562054 1417699360 1 1073745936 2228224 704643140 128 1 36947567 268435713 273678592 1075970322 204 42993386 256 68157696 2359300 238 1077970882
shrinkage=0.1


Tree=5
num_leaves=15
num_cat=5
split_feature=0 8 0 0 8 8 0 5 0 8 8 0 5 0
split_gain=3.45506e+16 1.65082e+16 1.59776e+16 5.07916e+15 4.59575e+15 2.95156e+15 2.32577e+15 1.78505e+15 1.58076e+15 1.21382e+15 1.16764e+15 1.15772e+15 9.05236e+14 6.39083e+14
threshold=65.500000000000014 0 114.50000000000001 45.500000000000007 1 2 87.500000000000014 2008.5000000000002 82.500000000000014 3 4 132.50000000000003 2005.5000000000002 34.500000000000007
decision_type=2 5 2 2 5 5 2 2 2 5 5 2 2 2
left_child=3 2 8 10 -3 -5 -6 -4 -2 -7 -1 -9 -8 -12
right_child=1 4 7 5 6 9 12 11 -10 -11 13 -13 -14 -15
leaf_value=-185419.60980916442 434561.50300480775 -73449.918949225554 2303274.8999999999 169061.69404028848 193023.93373813829 -129851.99625876226 605047.41006680788 935779.96250000002 802241.88356100302 -1981.0168911668243 -160702.5546445096 1961680.1399857954 310641.19928002451 -77808.036916273471
leaf_count=2446 390 564 55 869 1421 973 214 22 167 3045 1263 22 204 3528
internal_value=0 3.00378e+06 7.41558e+06 -757140 1.7612e+06 30506.9 2.52644e+06 1.92348e+07 5.448e+06 -331918 -1.28902e+06 1.44873e+07 4.61366e+06 -994530
internal_count=15183 3059 656 12124 2403 4887 1839 99 557 4018 7237 44 418 4791
cat_boundaries=0 5 10 15 20 25
cat_threshold=1610625024 555892864 1786841156 33562785 1 34603594 4718848 68174080 3145728 224 1207963920 555886732 1653407822 8675457 1 34752106 0 70254848 18874378 204 34836079 4456705 1049873 3408146 196
shrinkage=0.1


Tree=6
num_leaves=15
num_cat=6
split_feature=0 8 0 0 8 8 0 8 5 0 8 5 8 0
split_gain=2.81115e+16 1.18985e+16 9.98909e+15 4.93934e+15 4.51395e+15 2.51922e+15 2.48706e+15 1.63304e+15 1.44495e+15 1.07263e+15 9.9617e+14 8.64833e+14 8.15198e+14 6.60622e+14
threshold=70.500000000000014 0 114.50000000000001 52.500000000000007 1 2 95.500000000000014 3 2009.5000000000002 82.500000000000014 4 2008.5000000000002 5 36.500000000000007
decision_type=2 5 2 2 5 5 2 5 2 2 5 2 5 2
left_child=3 2 9 7 11 -5 -6 -1 -4 -2 -9 -3 -7 -12
right_child=1 4 8 5 6 12 -8 10 -10 -11 13 -13 -14 -15
leaf_value=2417.1031085050558 439246.98252914514 112866.97672029769 2195746.3908163267 191676.74244387826 250938.55449280838 -77390.530279076687 573220.44631012564 -209489.79691119492 1248670.9729166667 841463.26837871282 -155788.84689287943 -83518.638358278331 32390.174817327195 -85451.804756854879
leaf_count=1254 193 560 49 788 1101 1081 306 1107 24 101 1883 374 1771 4591
internal_value=0 2.9209e+06 8.15178e+06 -633581 2.05725e+06 346736 3.18764e+06 -1.03747e+06 1.88438e+07 5.77423e+06 -1.21151e+06 338660 -93452.7 -1.05746e+06
internal_count=15183 2708 367 12475 2341 3640 1407 8835 73 294 7581 934 2852 6474
cat_boundaries=0 5 10 15 20 25 30
cat_threshold=536875008 538968192 1786839108 8320 1 34652783 1079050512 84935424 73531648 160 1631588368 674381958 1652621422 33570977 1 4112 2703386762 1787103302 343957505 1 42993344 64 68157696 2359296 108 36882031 268435713 5259521 2228498 204
shrinkage=0.1


Tree=7
num_leaves=15
num_cat=7
split_feature=0 8 0 0 8 8 5 4 0 8 8 8 0 0
split_gain=2.27893e+16 9.85771e+15 1.06396e+16 3.87672e+15 2.72755e+15 2.4116e+15 1.77553e+15 1.30685e+15 1.47699e+15 1.06603e+15 1.03333e+15 9.9383e+14 7.72226e+14 7.5753e+14
threshold=68.500000000000014 0 114.50000000000001 46.500000000000007 1 2 2008.5000000000002 3 101.50000000000001 4 5 6 91.500000000000014 132.50000000000003
decision_type=2 5 2 2 5 5 2 5 2 5 5 5 2 2
left_child=3 2 10 11 -3 -5 -4 8 -6 -7 12 -1 -2 -8
right_child=1 4 6 5 7 9 13 -9 -10 -11 -12 -13 -14 -15
leaf_value=-15348.125771117511 636732.13570402307 -38582.419770392145 1888773.3140909092 169526.33548270439 352679.27172489878 -118575.53736101656 781795.01250000007 172241.33756850401 1090802.8491935486 6278.4378867353953 331570.08148634789 -118640.7269537363 1288278.0173913045 1529401.5875000001
leaf_count=1108 87 581 55 792 216 857 33 1273 31 3239 485 6380 23 23
internal_value=0 2.57281e+06 5.78228e+06 -583161 1.45986e+06 109562 1.48521e+07 2.16326e+06 4.27991e+06 -200697 4.18745e+06 -1.03535e+06 7.08551e+06 1.08885e+07
internal_count=15183 2807 706 12376 2101 4888 111 1520 247 4096 595 7488 110 56
cat_boundaries=0 5 10 15 16 21 26 31
cat_threshold=1610627072 555892866 1786839108 2189435040 1 34636362 4260096 84934912 6291456 160 1140854800 2686593164 1753286726 8417441 1 1073776576 43140682 0 68157696 18874370 140 0 2097152 545259588 0 1 1627652096 555907206 1250429028 310403584 1
shrinkage=0.1


Tree=8
num_leaves=15
num_cat=6
split_feature=0 8 0 0 8 8 0 0 5 3 8 8 5 5
split_gain=1.86136e+16 9.9402e+15 9.20252e+15 2.62272e+15 2.58518e+15 1.89086e+15 1.40767e+15 1.19438e+15 9.87579e+14 9.72792e+14 7.94761e+14 7.09663e+14 5.56485e+14 5.50127e+14
threshold=64.500000000000014 0 119.50000000000001 43.500000000000007 1 2 86.500000000000014 87.500000000000014 2004.5000000000002 3 4 5 2000.5000000000002 2008.5000000000002
decision_type=2 5 2 2 5 5 2 2 2 5 5 5 2 2
left_child=3 2 6 10 -3 -5 -2 13 -4 12 -1 -7 -9 -6
right_child=1 4 8 5 7 11 -8 9 -10 -11 -12 -13 -14 -15
leaf_value=-159891.08103528741 324033.97803719901 -68946.010072556048 1999488.4115384617 108339.98073702802 157193.40946405396 -94147.222638630352 651443.87640895962 953821.69560810819 1266960.7891865082 205270.38467702965 -79499.000164193654 -11039.884028338243 468008.34536057693 -6771.4492723034273
leaf_count=1777 545 602 26 1093 1170 1483 173 37 63 281 4294 3326 65 248
internal_value=0 2.13891e+06 5.15427e+06 -572773 1.10024e+06 -98088.5 4.02922e+06 1.69897e+06 1.48096e+07 3.27534e+06 -1.03424e+06 -368107 5.86714e+06 1.28517e+06
internal_count=15183 3210 807 11973 2403 5902 718 1801 89 383 6071 4809 102 1418
cat_boundaries=0 5 10 15 16 21 26
cat_threshold=1610625024 555893376 1787365444 2457874593 1 34604618 524544 336609536 3145728 224 541069584 555887758 579141702 75522689 1 15040 34834030 4456705 1049872 3410178 198 34623178 268435456 338706689 19007570 206
shrinkage=0.1


Tree=9
num_leaves=15
num_cat=5
split_feature=0 8 0 0 8 8 0 0 8 5 8 5 0 5
split_gain=1.51923e+16 6.83193e+15 5.4878e+15 2.99401e+15 2.79251e+15 1.7877e+15 1.50775e+15 1.36405e+15 1.17317e+15 9.76466e+14 8.2527e+14 5.88017e+14 5.81923e+14 5.69232e+14
threshold=71.500000000000014 0 102.50000000000001 53.500000000000007 1 2 131.50000000000003 99.500000000000014 3 2006.5000000000002 4 2008.5000000000002 33.500000000000007 2006.5000000000002
decision_type=2 5 2 2 5 5 2 2 5 2 5 2 2 2
left_child=3 2 -2 8 -3 -5 9 13 -1 -4 -10 -7 -12 -6
right_child=1 4 6 5 7 11 -8 -9 10 -11 12 -13 -14 -15
leaf_value=9854.5382238446691 387625.66065153305 29358.138870675222 1407291.6211538464 171949.19486231255 251210.07110973258 22601.663423506019 1716790.2452743903 475757.08214775223 -195046.36324030193 607620.80143845023 -142365.17818028835 -89837.766040269955 -66827.918222766981 81888.132227988142
leaf_count=1389 265 1040 26 736 721 1979 41 228 684 37 1232 608 5923 274
internal_value=0 2.1848e+06 6.12614e+06 -457661 1.5084e+06 356249 1.24481e+07 2.53068e+06 -750749 9.37644e+06 -900214 -38092.7 -797231 2.04583e+06
internal_count=15183 2632 369 12551 2263 3323 104 1223 9228 63 7839 2587 7155 995
cat_boundaries=0 5 10 15 20 25
cat_threshold=12288 538968192 1786839108 8320 1 38830703 1078001936 84935568 73531648 160 1765802000 2820802726 1216413774 301990625 1 4368 2703387272 1787562054 343957505 1 42992832 0 67109120 2097152 104
shrinkage=0.1


Tree=10
num_leaves=15
num_cat=6
split_feature=0 8 0 8 8 0 6 4 0 5 0 8 5 8
split_gain=1.2308e+16 7.03119e+15 6.17114e+15 2.0558e+15 1.97009e+15 1.27101e+15 1.22804e+15 8.26735e+14 1.11131e+15 8.15594e+14 7.37887e+14 6.81988e+14 6.50614e+14 4.94206e+14
threshold=64.500000000000014 0 119.50000000000001 1 2 91.500000000000014 1.5000000000000002 3 96.500000000000014 2008.5000000000002 53.500000000000007 4 2007.5000000000002 5
decision_type=2 5 2 5 5 2 2 5 2 2 2 5 2 5
left_child=4 2 5 -3 10 11 -6 8 -5 -9 -1 -2 -4 -8
right_child=1 3 12 7 6 -7 13 9 -10 -11 -12 -13 -14 -15
leaf_value=3526.6221002825332 507169.2031517094 -52845.347951520642 1599987.2660472973 179334.55245126577 -104552.80843060237 640988.13197646721 13040.618945811055 140444.07379292441 517297.93032111222 -73216.187611282701 133848.12083421528 203964.87882179057 1021603.1452743904 -53057.695649787798
leaf_count=1516 107 690 37 416 4424 123 1606 1057 127 215 609 397 41 3818
internal_value=0 1.73924e+06 4.5074e+06 938434 -465809 3.52782e+06 -653858 1.49593e+06 2.53707e+06 1.03516e+06 406838 2.82445e+06 1.29596e+07 -335603
internal_count=15183 3210 705 2505 11973 627 9848 1815 543 1272 2125 504 78 5424
cat_boundaries=0 5 10 15 16 21 25
cat_threshold=12288 555893378 1786841156 2449485985 1 34637386 4718848 357581056 3145728 224 1614811408 556933260 713558086 276849281 1 1112836034 0 2113536 8388676 1 1 486539264 3229666896 1078276264 1313083680
shrinkage=0.1


Tree=11
num_leaves=15
num_cat=5
split_feature=0 8 0 8 8 4 0 8 0 0 0 5 5 1
split_gain=1.01258e+16 4.50382e+15 3.69899e+15 2.16232e+15 1.86521e+15 1.90865e+15 1.31776e+15 1.21725e+15 1.21013e+15 1.19991e+15 9.14738e+14 7.71604e+14 5.45431e+14 7.55402e+14
threshold=72.500000000000014 0 131.50000000000003 1 2 3 117.50000000000001 4 44.500000000000007 59.500000000000007 102.50000000000001 2005.5000000000002 2007.5000000000002 78.500000000000014
decision_type=2 5 2 5 5 5 2 5 2 2 2 2 2 2
left_child=3 2 10 9 -3 6 -6 -5 -9 -1 -2 -12 13 -7
right_child=1 4 -4 7 5 12 -8 8 -10 -11 11 -13 -14 -15
leaf_value=21328.251377495944 325908.73308576236 17728.221446201023 1457600.0846153847 -147171.40146094668 392965.82431334083 174401.04350755955 1145243.0418269231 -76174.994971247361 -3110.8376061853905 223176.7844378592 1255162.5353422619 499858.26558388158 34617.428943066094 769283.79517045466
leaf_count=1916 223 894 39 1268 223 718 26 4957 4177 348 21 38 313 22
internal_value=0 1.8327e+06 5.2833e+06 -363294 1.29834e+06 2.06088e+06 4.53312e+06 -555780 -427158 521242 4.18548e+06 7.68695e+06 1.43913e+06 1.92087e+06
internal_count=15183 2517 321 12666 2196 1302 249 10402 9134 2264 282 59 1053 740
cat_boundaries=0 5 10 15 16 21
cat_threshold=4096 538968192 1786839108 8320 1 1077940480 673344644 1786775622 343957665 1 34652783 4260129 2232419216 73531392 160 1073743810 43140288 0 67109120 18907138 8440
shrinkage=0.1


Tree=12
num_leaves=15
num_cat=6
split_feature=0 0 8 4 0 0 1 8 8 8 4 0 5 0
split_gain=8.46245e+15 3.52604e+15 2.15697e+15 2.10733e+15 1.73846e+15 1.18391e+15 1.44978e+15 9.82477e+14 8.39853e+14 7.89348e+14 5.97144e+14 5.96966e+14 5.42606e+14 6.39885e+14
threshold=82.500000000000014 53.500000000000007 0 1 124.50000000000001 147.00000000000003 100.50000000000001 2 3 4 5 33.500000000000007 2009.5000000000002 103.50000000000001
decision_type=2 2 5 5 2 2 2 5 5 5 5 2 2 2
left_child=1 8 -3 4 12 9 -7 -4 -1 -5 -9 -10 13 -2
right_child=3 2 7 5 -6 6 -8 10 11 -11 -12 -13 -14 -15
leaf_value=-107336.01114618602 492460.77987637365 205721.8033373793 -48489.186258494832 -2129.4324860993806 1378002.1173014324 1301160.4904761906 193311.98767361112 -18172.539100519971 -100805.82794354268 231425.21526904588 82874.857737592945 -24329.449725158822 285481.86776424636 1054978.7505709135
leaf_count=2376 91 731 1379 212 24 21 27 819 1248 497 2043 5604 85 26
internal_value=0 -195835 483036 2.8381e+06 5.49074e+06 1.9479e+06 6.77996e+06 206365 -561608 1.64823e+06 539962 -382028 4.77769e+06 6.17465e+06
internal_count=15183 14200 4972 983 226 757 48 4241 9228 709 2862 6852 202 117
cat_boundaries=0 5 6 11 16 20 21
cat_threshold=528400 136456332 1082331212 302006401 1 1075318658 36931150 4260097 271581440 3768338 204 43011819 262208 68158721 20187152 238 37750849 671088704 0 35651840 524856
shrinkage=0.1


Tree=13
num_leaves=15
num_cat=7
split_feature=0 8 0 0 8 8 3 0 8 5 5 0 8 8
split_gain=6.92739e+15 2.80188e+15 2.53358e+15 2.25993e+15 1.61315e+15 1.4754e+15 1.18503e+15 8.59378e+14 8.19275e+14 6.45038e+14 6.44623e+14 6.14691e+14 5.72681e+14 4.77246e+14
threshold=79.500000000000014 0 54.500000000000007 131.50000000000003 1 2 3 100.50000000000001 4 2008.5000000000002 2008.5000000000002 124.50000000000001 5 6
decision_type=2 5 2 2 5 5 5 2 5 2 2 2 5 5
left_child=2 3 8 -2 -4 -3 -7 -8 -1 13 11 -9 -10 -6
right_child=1 5 4 -5 9 6 7 10 12 -11 -12 -13 -14 -15
leaf_value=18217.645394470532 519725.311259665 19182.925329390662 157190.45787891283 1642321.58092152 92840.144409388813 73597.537738549625 256541.61068725586 523764.17249999999 -169269.9189744016 -64001.232061909024 313820.51523173566 1048511.234007353 -54785.12590798601 2446.968270021383
leaf_count=1534 97 419 957 22 924 252 296 65 460 863 74 34 7614 1572
internal_value=0 2.2471e+06 -202353 6.70887e+06 434092 1.70752e+06 2.57368e+06 3.52512e+06 -488250 104929 5.37091e+06 7.0398e+06 -615090 362916
internal_count=15183 1259 13924 119 4316 1140 721 469 9608 3359 173 99 8074 2496
cat_boundaries=0 3 8 13 14 19 24 28
cat_threshold=4096 536871040 1082130500 1627402512 673351812 1216360524 377491649 1 37765729 134217764 68157968 2228544 32 5701646 16 2703417994 713885766 1350590977 1 42992768 0 67109120 32768 40 338165760 2149058168 2722988211 1073753124
shrinkage=0.1


Tree=14
num_leaves=15
num_cat=8
split_feature=0 8 0 5 8 8 8 0 8 0 7 8 4 5
split_gain=5.71269e+15 4.32254e+15 2.66098e+15 1.2328e+15 1.31285e+15 1.08283e+15 8.67589e+14 8.15331e+14 6.4443e+14 6.28799e+14 5.89106e+14 4.68201e+14 4.99295e+14 4.54306e+14
threshold=62.500000000000007 0 119.50000000000001 2007.5000000000002 1 2 3 82.500000000000014 4 92.500000000000014 5 6 7 2007.5000000000002
decision_type=2 5 2 2 5 5 5 2 5 2 1 5 5 2
left_child=5 2 7 4 9 11 10 -2 -7 -3 -5 -1 -13 -4
right_child=1 3 13 6 -6 8 -8 -9 -10 -11 -12 12 -14 -15
leaf_value=228825.35349864131 194705.128425 231389.69713836431 1179145.5994384766 211531.15601412259 62082.383109165297 -158790.92663234065 -88376.156330360362 437134.05505701707 -42396.00921758703 613068.58725961542 -134111.9141098485 -45771.395901797863 60405.83095171077 676376.58094512206
leaf_count=105 500 254 32 195 1585 496 772 192 9024 52 66 702 1167 41
internal_value=0 1.08351e+06 3.18382e+06 521339 1.00304e+06 -346729 -355401 2.61969e+06 -486205 2.86875e+06 1.19547e+06 326731 204941 8.96768e+06
internal_count=15183 3689 765 2924 1891 11494 1033 692 9520 306 261 1974 1869 73
cat_boundaries=0 5 9 14 16 21 22 26 27
cat_threshold=4096 2686476942 1787373636 2424320177 1 271056912 134348864 2147778568 33554496 675287312 555901126 679741510 276849281 1 4991234 16777216 9438208 0 67109120 2097152 8368 2 0 2097152 8390656 1 560
shrinkage=0.1


Tree=15
num_leaves=15
num_cat=8
split_feature=0 8 3 0 0 8 0 8 5 4 5 7 4 8
split_gain=4.72816e+15 2.19499e+15 1.81275e+15 1.80402e+15 1.63535e+15 8.95465e+14 7.74577e+14 5.95305e+14 5.53563e+14 5.0478e+14 4.77314e+14 7.2606e+14 4.69635e+14 4.99826e+14
threshold=86.500000000000014 0 1 145.50000000000003 56.500000000000007 2 58.500000000000007 3 1996.5000000000002 4 2008.5000000000002 5 6 7
decision_type=2 5 5 2 2 5 2 5 2 5 2 1 5 5
left_child=1 6 9 -4 7 8 -1 -3 -6 -2 -7 -12 -9 -14
right_child=2 4 3 -5 5 10 -8 12 -10 -11 11 -13 13 -15
leaf_value=101843.08256752233 -116286.29498313212 -90084.000197848392 324721.37420836109 1056536.0069045608 67246.8405035795 33074.835866319634 357113.14921495225 -57497.207523613404 241707.03368367805 141085.04773831097 6670.2434466346594 -181589.90039179157 54638.064254686913 -26460.876151524317
leaf_count=350 100 2096 376 37 526 2393 180 3396 278 253 681 293 982 3242
internal_value=0 -127922 2.42168e+06 3.81057e+06 -204613 318991 1.85047e+06 -429603 1.26003e+06 669804 90271.5 -499624 -298408 -75223.9
internal_count=15183 14417 766 413 13887 4171 530 9716 804 353 3367 974 7620 4224
cat_boundaries=0 4 5 10 15 16 17 18 22
cat_threshold=0 2228224 8521796 805330945 8323102 1610625040 2315315844 1241591851 4320 1 43026154 262144 70255873 19171392 254 16777324 2 568 135016720 2685446286 1779175426 42012688
shrinkage=0.1


Tree=16
num_leaves=15
num_cat=7
split_feature=0 8 0 8 5 4 8 0 5 2 3 8 5 0
split_gain=3.88603e+15 2.19194e+15 2.36151e+15 1.13916e+15 9.2513e+14 9.03149e+14 7.86942e+14 7.46606e+14 6.4017e+14 5.02074e+14 4.0459e+14 3.97326e+14 4.86543e+14 3.97026e+14
threshold=72.500000000000014 0 119.50000000000001 1 2007.5000000000002 2 3 41.500000000000007 2005.5000000000002 4 5 6 1997.5000000000002 58.500000000000007
decision_type=2 5 2 5 2 5 5 2 2 1 5 5 2 2
left_child=3 2 5 13 -4 10 -5 -8 11 -9 -2 -3 -13 -1
right_child=1 8 4 6 -6 -7 7 9 -10 -11 -12 12 -14 -15
leaf_value=68480.086650485449 -81662.871538363819 30065.196897953396 1069864.0164772726 -152768.84184639083 435047.32070312503 314565.34130922181 -54169.703408816014 48062.156775087424 -17223.528019847039 -17296.683123825493 150557.05662523091 99002.699532176062 291169.0676840485 264659.76432897284
leaf_count=515 113 458 44 487 48 301 4819 1507 736 5209 193 435 189 129
internal_value=0 1.13546e+06 2.62771e+06 -224951 7.38655e+06 1.94973e+06 -294491 -241148 544262 -25850.4 649321 1.03667e+06 1.54727e+06 1.06129e+06
internal_count=15183 2517 699 12666 92 607 12022 11535 1818 6716 306 1082 624 644
cat_boundaries=0 5 10 11 16 205 206 210
cat_threshold=538982656 538968774 1787363404 2189435040 1 0 539099264 8390724 268460033 1 42438692 9438336 0 67109120 16777216 8240 0 0 0 0 0 0 0 0 0 0 0 0 0 0 0 0 0 0 0 0 0 0 0 0 0 0 0 0 0 0 0 0 0 0 0 0 0 0 0 0 0 0 0 0 0 0 0 0 0 0 0 0 0 0 0 0 0 0 0 0 0 0 0 0 0 0 0 0 0 0 0 0 0 0 0 0 0 0 0 0 0 0 0 0 0 0 0 0 0 0 0 0 0 0 0 0 0 0 0 0 0 0 0 0 0 0 0 0 0 0 0 0 0 0 0 0 0 0 0 0 0 0 0 0 0 0 0 0 0 0 0 0 0 0 0 0 0 0 0 0 0 0 0 0 0 0 0 0 0 0 0 0 0 0 0 0 0 0 0 0 0 0 0 0 0 0 0 0 0 0 0 0 0 0 0 0 0 0 0 0 0 0 0 0 0 0 0 0 1610612736 8742 4243457 1048577 17957376 71434752
shrinkage=0.1


Tree=17
num_leaves=15
num_cat=5
split_feature=0 8 4 0 0 8 1 4 0 8 5 0 0 5
split_gain=3.25556e+15 1.81766e+15 1.47863e+15 1.228e+15 1.02379e+15 9.55946e+14 8.45385e+14 8.07275e+14 7.83545e+14 6.82899e+14 5.37643e+14 3.74906e+14 3.61298e+14 3.571e+14
threshold=95.500000000000014 0 1 45.500000000000007 145.50000000000003 2 110.50000000000001 3 58.500000000000007 4 2006.5000000000002 28.500000000000004 82.500000000000014 2012.5000000000002
decision_type=2 5 5 2 2 5 2 5 2 5 2 2 2 2
left_child=1 8 -2 11 10 -5 -6 -7 -1 12 -4 -3 -9 -12
right_child=2 3 4 5 6 7 -8 9 -10 -11 13 -13 -14 -15
leaf_value=89355.987610870463 -25505.316831040243 -174057.69694577839 439402.44402022689 -49026.593767164239 1287283.6009375001 -27363.166778343846 378847.03452380956 114598.88217037672 357591.80945312505 33738.280481125257 54707.021372215349 -40841.676406041224 351599.16268115945 321965.43385219388
leaf_count=303 159 218 146 1795 20 1484 21 949 170 2820 101 6829 69 99
internal_value=0 -88724.8 2.39824e+06 -153614 3.40691e+06 139273 8.21987e+06 351863 1.81916e+06 593799 2.93505e+06 -449627 1.29392e+06 1.87e+06
internal_count=15183 14637 546 14164 387 7117 41 5322 473 3838 346 7047 1018 200
cat_boundaries=0 5 6 11 12 16
cat_threshold=0 2097152 8521796 805322753 1 12648492 43140810 4784128 337658112 20480258 236 524860 12304 2584768140 1745465369 2155876496
shrinkage=0.1


Tree=18
num_leaves=15
num_cat=6
split_feature=8 0 0 8 0 5 5 8 0 0 8 5 8 2
split_gain=2.69315e+15 2.97593e+15 1.76477e+15 1.1889e+15 9.65335e+14 8.17462e+14 1.21432e+15 7.66995e+14 7.03911e+14 4.72733e+14 4.26371e+14 4.05081e+14 6.13859e+14 3.95397e+14
threshold=0 100.50000000000001 59.500000000000007 1 100.50000000000001 2005.5000000000002 2000.5000000000002 2 66.500000000000014 34.500000000000007 3 2008.5000000000002 4 5
decision_type=5 2 2 5 2 2 2 5 2 2 5 2 5 1
left_child=1 8 9 4 -4 6 -6 -5 -1 -2 -11 12 -9 -12
right_child=2 -3 3 7 5 -7 -8 11 -10 10 13 -13 -14 -15
leaf_value=82725.798776130963 -76797.210948023305 1023703.3796502976 101106.19396229619 -157996.28281794864 179297.84020774148 221524.89722583914 1197967.973 285529.94144531252 344569.09370471019 -57857.976561509531 22337.754013811806 -26753.755930970656 41501.841663859916 -27909.683897286272
leaf_count=401 1798 42 828 223 22 108 25 100 138 2250 2642 860 1929 3817
internal_value=0 2.09339e+06 -84052.6 472755 1.42532e+06 3.73022e+06 7.21144e+06 166749 1.49765e+06 -301143 -204765 306561 551406 -73536.3
internal_count=15183 581 14602 4095 983 155 47 3112 539 10507 8709 2889 2029 6459
cat_boundaries=0 5 9 14 19 23 212
cat_threshold=0 2097152 1082132548 536895489 1 1075853312 2835409550 705495041 2449477792 34604032 0 67108864 3145728 100 43026155 33554688 87032065 2166392850 234 268435472 64 0 64 0 0 0 0 0 0 0 0 0 0 0 0 0 0 0 0 0 0 0 0 0 0 0 0 0 0 0 0 0 0 0 0 0 0 0 0 0 0 0 0 0 0 0 0 0 0 0 0 0 0 0 0 0 0 0 0 0 0 0 0 0 0 0 0 0 0 0 0 0 0 0 0 0 0 0 0 0 0 0 0 0 0 0 0 0 0 0 0 0 0 0 0 0 0 0 0 0 0 0 0 0 0 0 0 0 0 0 0 0 0 0 0 0 0 0 0 0 0 0 0 0 0 0 0 0 0 0 0 0 0 0 0 0 0 0 0 0 0 0 0 0 0 0 0 0 0 0 0 0 0 0 0 0 0 0 0 0 0 0 0 0 0 0 0 0 0 0 0 0 0 0 0 0 0 0 0 0 0 0 0 0 0 0 0 0 0 0 0 1879048192
shrinkage=0.1


Tree=19
num_leaves=15
num_cat=7
split_feature=0 8 0 4 0 8 8 5 0 4 8 0 3 5
split_gain=2.26313e+15 1.29817e+15 1.12728e+15 1.12092e+15 1.12627e+15 8.80007e+14 6.51599e+14 6.02901e+14 5.81999e+14 4.36271e+14 6.45538e+14 4.75762e+14 3.53243e+14 3.4417e+14
threshold=77.500000000000014 0 115.50000000000001 1 124.50000000000001 2 3 2007.5000000000002 59.500000000000007 4 5 54.500000000000007 6 2013.5000000000002
decision_type=2 5 2 5 2 5 5 2 2 5 5 2 5 2
left_child=5 2 -2 4 -3 8 -7 -5 12 -8 -11 -12 -1 -9
right_child=1 3 -4 7 -6 6 9 13 -10 10 11 -13 -14 -15
leaf_value=-22449.594308559434 214360.1992993732 180087.07716857729 724163.35550915962 87441.039796322235 875737.15399999998 -152515.01911454924 -44459.768430881653 -157824.68745227659 145824.70786015794 -39695.647278170181 -1541.7468734890808 72752.276766205425 69716.709917520231 20308.842406653464
leaf_count=929 172 337 58 547 25 372 4304 221 459 2878 2652 1277 739 213
internal_value=0 1.13624e+06 3.28631e+06 738060 2.21997e+06 -130650 -240046 174337 458920 -195688 -37883.4 225478 186677 -703997
internal_count=15183 1573 230 1343 362 13610 11483 981 2127 11111 6807 3929 1668 434
cat_boundaries=0 4 5 10 15 17 22 23
cat_threshold=4096 553648258 1619591236 32 1075122050 0 673364108 176232550 1954574849 1 9438336 0 67108864 0 8240 2884152 1 102924875 4784384 22021376 20480298 204 133678
shrinkage=0.1


Tree=20
num_leaves=15
num_cat=7
split_feature=8 0 0 8 4 5 5 0 1 8 0 8 3 8
split_gain=1.97481e+15 2.12517e+15 1.14124e+15 8.23805e+14 7.46934e+14 7.46127e+14 8.86014e+14 7.27663e+14 7.14048e+14 6.77086e+14 5.34722e+14 4.86005e+14 3.81879e+14 4.11898e+14
threshold=0 100.50000000000001 59.500000000000007 1 2 2008.5000000000002 1996.5000000000002 145.50000000000003 97.500000000000014 3 47.500000000000007 4 5 6
decision_type=5 2 2 5 5 2 2 2 2 5 2 5 5 5
left_child=1 10 12 -4 8 6 11 -8 -5 -7 -1 -6 -2 -14
right_child=2 -3 3 4 5 9 7 -9 -10 -11 -12 -13 13 -15
leaf_value=18192.007172770518 -53542.097543668737 867474.34624255961 -27325.579830365274 160915.44453185878 223708.83619157178 -284924.2752201705 156788.15993760451 756731.18571428582 684134.76183035725 376.56779616083799 218520.08516378724 11018.439629863282 -46950.630251140814 4043.6178171051706
leaf_count=241 3181 42 1324 381 108 100 542 21 28 351 298 1240 2304 5022
internal_value=0 1.79251e+06 -72065 375697 684286 463050 738049 1.79166e+06 1.9204e+06 -691923 1.28949e+06 298002 -246644 -120360
internal_count=15183 581 14602 4095 2771 2362 1911 563 409 451 539 1348 10507 7326
cat_boundaries=0 5 10 12 16 20 21 26
cat_threshold=0 2097152 1082132548 536895489 1 34621000 1078460673 359678720 7996680 100 1108389058 256 2048 671088704 0 33554432 0 131136 2147483650 301989888 38 34670315 33882369 68190464 19038486 204
shrinkage=0.1


Tree=21
num_leaves=15
num_cat=9
split_feature=8 0 8 0 2 8 4 5 8 4 0 4 8 0
split_gain=1.59983e+15 1.75755e+15 9.66795e+14 1.19182e+15 5.92643e+14 9.03647e+14 4.47859e+14 6.2793e+14 4.1669e+14 3.58192e+14 4.15379e+14 3.51735e+14 4.36433e+14 2.96191e+14
threshold=0 91.500000000000014 1 59.500000000000007 2 3 4 2008.5000000000002 5 6 88.500000000000014 7 8 115.50000000000001
decision_type=5 2 5 2 1 5 5 2 5 5 2 5 5 2
left_child=1 8 -2 11 -5 6 -6 -8 -1 10 -7 -4 -13 -11
right_child=2 -3 3 4 5 9 7 -9 -10 13 -12 12 -14 -15
leaf_value=279457.06880444556 -94798.931615233741 701972.09704545466 -39530.464326124536 -8175.1795330099039 21608.036810661768 77174.666016725358 297834.02429382835 58070.298372499507 58097.805649177259 23122.042058871331 339094.63962970889 56896.172659240896 -14671.434930309051 -256249.53060897437
leaf_count=103 1133 55 4167 1251 160 355 359 157 423 1409 73 1043 4456 39
internal_value=0 1.61326e+06 -64977.3 9949.07 484197 758973 1.74508e+06 2.20607e+06 1.07861e+06 396268 1.19066e+06 -176629 -10185.1 154906
internal_count=15183 581 14602 13469 3803 2552 676 516 526 1876 428 9666 5499 1448
cat_boundaries=0 5 10 199 203 204 208 209 210 214
cat_threshold=0 2097152 1082132548 536895489 1 43123840 0 67109120 18907138 8316 0 0 0 0 0 0 0 0 0 0 0 0 0 0 0 0 0 0 0 0 0 0 0 0 0 0 0 0 0 0 0 0 0 0 0 0 0 0 0 0 0 0 0 0 0 0 0 0 0 0 0 0 0 0 0 0 0 0 0 0 0 0 0 0 0 0 0 0 0 0 0 0 0 0 0 0 0 0 0 0 0 0 0 0 0 0 0 0 0 0 0 0 0 0 0 0 0 0 0 0 0 0 0 0 0 0 0 0 0 0 0 0 0 0 0 0 0 0 0 0 0 0 0 0 0 0 0 0 0 0 0 0 0 0 0 0 0 0 0 0 0 0 0 0 0 0 0 0 0 0 0 0 0 0 0 0 0 0 0 0 0 0 0 0 0 0 0 0 0 0 0 0 0 0 0 0 0 0 0 0 0 0 0 0 0 0 0 0 100663296 1612714240 721422542 671817744 2424377380 65824 0 0 8390656 1 1108715970 568 671363344 2685462662 671682562 302322240
shrinkage=0.1


Tree=22
num_leaves=15
num_cat=7
split_feature=8 0 8 4 5 0 0 3 8 2 8 0 5 0
split_gain=1.33003e+15 1.07073e+15 7.75058e+14 9.5255e+14 6.66771e+14 6.66718e+14 6.26234e+14 5.55828e+14 5.20877e+14 4.97162e+14 6.25751e+14 3.37247e+14 3.00324e+14 2.88839e+14
threshold=0 76.500000000000014 1 2 2008.5000000000002 114.50000000000001 79.500000000000014 3 4 5 6 134.50000000000003 2010.5000000000002 57.500000000000007
decision_type=5 2 5 5 2 2 2 5 5 1 5 2 2 2
left_child=6 7 -3 5 11 -4 -1 -2 -9 10 13 -5 -7 -10
right_child=1 2 3 4 -6 12 -8 8 9 -11 -12 -13 -14 -15
leaf_value=241643.43771769205 -80825.94022845116 -23299.99019709407 196832.39449029739 93773.970046813003 -108768.14359461326 715636.84399646579 844502.62258184515 -41801.479600251754 72300.882615914044 -13647.991945703101 10325.744699338002 468276.2300654297 283184.87627704325 199162.78559231505
leaf_count=96 1077 582 248 630 181 42 21 3068 671 5423 2848 25 26 245
internal_value=0 -26741 712444 1.18185e+06 603989 2.64521e+06 3.22302e+06 -122902 -61960.7 57268.9 336035 1.08068e+06 5.50288e+06 1.05085e+06
internal_count=15183 15066 1734 1152 836 316 117 13332 12255 9187 3764 655 68 916
cat_boundaries=0 4 9 11 12 17 206 210
cat_threshold=0 0 8390656 1 38797934 134219780 2215772304 1075970368 160 1394116226 256 2 43140803 306249728 70254848 20218118 188 0 0 0 0 0 0 0 0 0 0 0 0 0 0 0 0 0 0 0 0 0 0 0 0 0 0 0 0 0 0 0 0 0 0 0 0 0 0 0 0 0 0 0 0 0 0 0 0 0 0 0 0 0 0 0 0 0 0 0 0 0 0 0 0 0 0 0 0 0 0 0 0 0 0 0 0 0 0 0 0 0 0 0 0 0 0 0 0 0 0 0 0 0 0 0 0 0 0 0 0 0 0 0 0 0 0 0 0 0 0 0 0 0 0 0 0 0 0 0 0 0 0 0 0 0 0 0 0 0 0 0 0 0 0 0 0 0 0 0 0 0 0 0 0 0 0 0 0 0 0 0 0 0 0 0 0 0 0 0 0 0 0 0 0 0 0 0 0 0 0 0 0 0 0 0 0 0 0 0 0 0 0 0 0 0 0 0 0 1879048192 671351040 690145900 33624166 335568936
shrinkage=0.1


Tree=23
num_leaves=15
num_cat=6
split_feature=8 0 8 1 4 0 2 1 4 0 0 0 0 2
split_gain=1.15856e+15 1.56738e+15 6.84934e+14 5.55072e+14 5.51464e+14 4.84768e+14 4.41264e+14 4.37123e+14 3.84913e+14 3.72724e+14 3.49039e+14 3.32748e+14 3.21452e+14 3.13326e+14
threshold=0 79.500000000000014 1 79.500000000000014 2 95.500000000000014 3 60.500000000000007 4 42.500000000000007 88.500000000000014 116.50000000000001 126.50000000000001 5
decision_type=5 2 5 2 5 2 1 2 5 2 2 2 2 1
left_child=1 8 10 6 11 9 7 -3 -1 -6 -2 -4 -5 -11
right_child=2 3 4 12 5 -7 -8 -9 -10 13 -12 -13 -14 -15
leaf_value=-7658.2541775272803 -107576.18569130449 497323.02844360354 -51362.597415566124 297863.61083333334 -26109.948915385929 127960.89257509373 56569.184715040472 89005.568805088144 80451.304907679674 30173.151764435333 -506011.81793478265 -426040.43595377612 746968.77380514704 -16193.869568536786
leaf_count=1084 499 80 1914 30 3817 298 129 39 906 4033 23 24 34 2273
internal_value=0 652112 -116641 2.73888e+06 -68754.8 22519.5 2.0613e+06 3.35326e+06 328217 -14464.3 -1.2278e+06 -557151 5.36451e+06 134823
internal_count=15183 2302 12881 312 12359 10421 248 119 1990 10123 522 1938 64 6306
cat_boundaries=0 5 10 12 201 202 391
cat_threshold=4096 538997378 1754208326 813723809 1 9438336 0 67108864 16809984 8304 134742076 1 0 0 0 0 0 0 0 0 0 0 0 0 0 0 0 0 0 0 0 0 0 0 0 0 0 0 0 0 0 0 0 0 0 0 0 0 0 0 0 0 0 0 0 0 0 0 0 0 0 0 0 0 0 0 0 0 0 0 0 0 0 0 0 0 0 0 0 0 0 0 0 0 0 0 0 0 0 0 0 0 0 0 0 0 0 0 0 0 0 0 0 0 0 0 0 0 0 0 0 0 0 0 0 0 0 0 0 0 0 0 0 0 0 0 0 0 0 0 0 0 0 0 0 0 0 0 0 0 0 0 0 0 0 0 0 0 0 0 0 0 0 0 0 0 0 0 0 0 0 0 0 0 0 0 0 0 0 0 0 0 0 0 0 0 0 0 0 0 0 0 0 0 0 0 0 0 0 0 0 0 0 0 0 0 0 0 0 0 1879048192 852528 0 0 0 0 0 0 0 0 0 0 0 0 0 0 0 0 0 0 0 0 0 0 0 0 0 0 0 0 0 0 0 0 0 0 0 0 0 0 0 0 0 0 0 0 0 0 0 0 0 0 0 0 0 0 0 0 0 0 0 0 0 0 0 0 0 0 0 0 0 0 0 0 0 0 0 0 0 0 0 0 0 0 0 0 0 0 0 0 0 0 0 0 0 0 0 0 0 0 0 0 0 0 0 0 0 0 0 0 0 0 0 0 0 0 0 0 0 0 0 0 0 0 0 0 0 0 0 0 0 0 0 0 0 0 0 0 0 0 0 0 0 0 0 0 0 0 0 0 0 0 0 0 0 0 0 0 0 0 0 0 0 0 0 0 0 0 0 0 0 0 0 0 0 0 0 0 0 0 0 0 0 0 0 0 0 0 0 0 2013265920
shrinkage=0.1


Tree=24
num_leaves=15
num_cat=6
split_feature=8 4 8 0 5 5 5 8 8 1 8 1 5 0
split_gain=1.01467e+15 7.70482e+14 1.10929e+15 7.66351e+14 5.66547e+14 5.35824e+14 7.94022e+14 8.30495e+14 6.27702e+14 6.43054e+14 5.67335e+14 4.678e+14 3.91448e+14 3.7628e+14
threshold=0 1 2 58.500000000000007 1997.5000000000002 2007.5000000000002 1997.5000000000002 3 4 48.500000000000007 5 58.500000000000007 2013.5000000000002 88.500000000000014
decision_type=5 5 5 2 2 2 2 5 5 2 5 2 2 2
left_child=3 2 4 -1 -2 6 8 11 9 -3 -7 -8 -12 -6
right_child=1 5 -4 -5 13 10 7 -9 -10 -11 12 -13 -14 -15
leaf_value=104463.36396864854 75450.733733565721 113186.9509986413 16178.447433671592 620335.67118185293 212176.49915081525 -167647.82196702695 205368.89434084485 31895.519886697748 -17034.655863786935 714962.61075148813 -88019.444212941875 701624.08147321432 15143.204016682841 480949.59776278411
leaf_count=77 216 115 1944 46 161 389 199 1106 9332 21 686 21 793 77
internal_value=0 -23934.8 494616 2.75031e+06 1.88558e+06 -122454 -36973.4 687767 -138474 1.91991e+06 -617046 2.4175e+06 -324868 2.99133e+06
internal_count=15183 15060 2398 123 454 12662 10794 1326 9468 136 1868 220 1479 238
cat_boundaries=0 4 6 10 14 18 23
cat_threshold=0 0 8390656 16384 1540402562 256 1073756160 57506 1208586340 268439713 402657280 2684354688 708968576 8388608 0 2228288 0 1 9440288 64 71303176 128 32
shrinkage=0.1


Tree=25
num_leaves=15
num_cat=6
split_feature=8 0 8 0 5 0 5 2 0 8 8 0 4 1
split_gain=8.72902e+14 6.77085e+14 6.83454e+14 7.49708e+14 5.108e+14 4.95541e+14 4.61421e+14 4.28673e+14 3.87968e+14 3.76164e+14 3.55364e+14 3.15798e+14 2.97712e+14 2.85573e+14
threshold=0 43.500000000000007 1 95.500000000000014 1959.5000000000002 165.50000000000003 2006.5000000000002 2 86.500000000000014 3 4 91.500000000000014 5 60.500000000000007
decision_type=5 2 5 2 2 2 2 1 2 5 5 2 5 2
left_child=8 -2 3 -3 -5 7 -6 9 -1 -4 11 -9 -12 -8
right_child=1 2 5 4 6 -7 13 10 -10 -11 12 -13 -14 -15
leaf_value=193046.19011404854 -28209.854144678622 53529.084976977647 113208.67908988621 -130806.87962239583 596127.02448408015 466085.69275645382 513533.70014880953 -42284.203604281705 671192.34375 12701.896044333709 28026.015348013079 -223310.06977374735 -24238.527325160339 72775.848214285725
leaf_count=112 6041 1367 542 24 53 23 21 1313 20 1173 2208 104 2133 49
internal_value=0 -23055.1 150602 761023 2.91194e+06 26262.5 3.73536e+06 12033.5 2.46796e+06 449377 -118802 -551811 23485.5 2.05003e+06
internal_count=15183 15051 9010 1514 147 7496 123 7473 132 1715 5758 1417 4341 70
cat_boundaries=0 4 9 198 202 207 208
cat_threshold=0 0 8390656 536870913 67112960 2160834 1610952782 2416210592 1 0 0 0 0 0 0 0 0 0 0 0 0 0 0 0 0 0 0 0 0 0 0 0 0 0 0 0 0 0 0 0 0 0 0 0 0 0 0 0 0 0 0 0 0 0 0 0 0 0 0 0 0 0 0 0 0 0 0 0 0 0 0 0 0 0 0 0 0 0 0 0 0 0 0 0 0 0 0 0 0 0 0 0 0 0 0 0 0 0 0 0 0 0 0 0 0 0 0 0 0 0 0 0 0 0 0 0 0 0 0 0 0 0 0 0 0 0 0 0 0 0 0 0 0 0 0 0 0 0 0 0 0 0 0 0 0 0 0 0 0 0 0 0 0 0 0 0 0 0 0 0 0 0 0 0 0 0 0 0 0 0 0 0 0 0 0 0 0 0 0 0 0 0 0 0 0 0 0 0 0 0 0 0 0 0 0 0 0 1610612736 302262546 729940500 134905872 42139648 974144706 973078532 100811008 20086784 172 1120134466
shrinkage=0.1


Tree=26
num_leaves=15
num_cat=6
split_feature=8 0 4 0 8 0 5 0 1 2 8 0 8 1
split_gain=7.31143e+14 8.25134e+14 5.50392e+14 9.69725e+14 6.22002e+14 6.98081e+14 3.38073e+14 2.98147e+14 2.95195e+14 2.81465e+14 2.92186e+14 2.80929e+14 2.41649e+14 2.19334e+14
threshold=0 98.500000000000014 1 165.50000000000003 2 95.500000000000014 2013.5000000000002 47.500000000000007 88.500000000000014 3 4 99.500000000000014 5 59.500000000000007
decision_type=5 2 5 2 5 2 2 2 2 1 5 2 5 2
left_child=1 6 8 4 5 -4 7 -1 -2 10 -6 12 -11 -7
right_child=2 -3 3 -5 9 13 -8 -9 -10 11 -12 -13 -14 -15
leaf_value=-15155.681401414902 -44192.514611916173 487125.73963120405 33991.698388092846 699713.90500000003 33131.473525516507 424254.58786764706 438138.60579427081 121662.02189034177 -359806.26117187506 7528.8052836345378 -12371.900172388976 -234552.64496268658 -48093.766313354608 169847.88039139853
leaf_count=307 2432 51 2319 20 2201 51 24 331 30 1235 3892 67 2122 101
internal_value=0 981688 -48727.1 39701.8 28127.6 474076 696868 558265 -478440 -88064.5 40928.3 -317058 -277517 2.55208e+06
internal_count=15183 713 14470 12008 11988 2471 662 638 2462 9517 6093 3424 3357 152
cat_boundaries=0 5 6 10 199 203 208
cat_threshold=0 2109440 1082132548 805330945 1 524348 1090533396 2281851630 671879178 33886752 0 0 0 0 0 0 0 0 0 0 0 0 0 0 0 0 0 0 0 0 0 0 0 0 0 0 0 0 0 0 0 0 0 0 0 0 0 0 0 0 0 0 0 0 0 0 0 0 0 0 0 0 0 0 0 0 0 0 0 0 0 0 0 0 0 0 0 0 0 0 0 0 0 0 0 0 0 0 0 0 0 0 0 0 0 0 0 0 0 0 0 0 0 0 0 0 0 0 0 0 0 0 0 0 0 0 0 0 0 0 0 0 0 0 0 0 0 0 0 0 0 0 0 0 0 0 0 0 0 0 0 0 0 0 0 0 0 0 0 0 0 0 0 0 0 0 0 0 0 0 0 0 0 0 0 0 0 0 0 0 0 0 0 0 0 0 0 0 0 0 0 0 0 0 0 0 0 0 0 0 0 0 0 0 0 0 0 0 2013265920 810287360 595657744 2183389872 3430940804 208191520 1075610641 2185339041 1073743056 64
shrinkage=0.1


Tree=27
num_leaves=15
num_cat=8
split_feature=3 8 0 0 4 8 8 6 2 8 8 0 1 0
split_gain=6.65054e+14 8.25269e+14 1.00706e+15 4.98518e+14 5.56717e+14 3.67068e+14 3.57216e+14 3.41017e+14 3.1893e+14 3.30151e+14 3.15009e+14 3.03985e+14 3.02583e+14 2.92144e+14
threshold=0 1 143.50000000000003 58.500000000000007 2 3 4 1.5000000000000002 5 6 7 100.50000000000001 57.500000000000007 82.500000000000014
decision_type=5 5 2 2 5 5 5 2 1 5 5 2 2 2
left_child=-1 2 3 -2 13 -6 -3 -8 9 12 -10 -7 -9 -5
right_child=1 6 -4 4 5 11 7 8 10 -11 -12 -13 -14 -15
leaf_value=-72918.910534657407 21740.39465595414 -81763.063662006578 769496.67874999996 185296.96891388291 -40710.716404498322 103044.49336617893 -23972.426538748798 60242.75051465648 32615.847742282102 13462.225850526884 -39794.723897414282 462732.70769230771 242929.72901953125 428462.55593297101
leaf_count=1145 1402 557 20 174 213 244 3987 971 901 3612 1762 26 100 69
internal_value=0 60207.1 629152 565700 1.23831e+06 569887 -43018.5 -4260.26 123531 280309 -152650 1.32764e+06 765853 2.44291e+06
internal_count=15183 14038 2148 2128 726 483 11890 11333 7346 4683 2663 270 1071 243
cat_boundaries=0 1 6 7 10 15 204 209 214
cat_threshold=2 536870912 2686483142 1082407014 805335073 1 51432960 536870912 538968256 1073741862 9438336 0 67109120 16809984 56 0 0 0 0 0 0 0 0 0 0 0 0 0 0 0 0 0 0 0 0 0 0 0 0 0 0 0 0 0 0 0 0 0 0 0 0 0 0 0 0 0 0 0 0 0 0 0 0 0 0 0 0 0 0 0 0 0 0 0 0 0 0 0 0 0 0 0 0 0 0 0 0 0 0 0 0 0 0 0 0 0 0 0 0 0 0 0 0 0 0 0 0 0 0 0 0 0 0 0 0 0 0 0 0 0 0 0 0 0 0 0 0 0 0 0 0 0 0 0 0 0 0 0 0 0 0 0 0 0 0 0 0 0 0 0 0 0 0 0 0 0 0 0 0 0 0 0 0 0 0 0 0 0 0 0 0 0 0 0 0 0 0 0 0 0 0 0 0 0 0 0 0 0 0 0 0 0 0 0 0 0 0 0 0 0 0 0 0 2013265920 1076369664 25166856 537591816 2357526532 128 493545472 1075019792 977272833 1111491280 64
shrinkage=0.1


Tree=28
num_leaves=15
num_cat=8
split_feature=8 3 0 4 8 5 5 8 8 1 8 7 1 1
split_gain=5.83574e+14 5.13621e+14 4.78108e+14 4.65399e+14 7.25401e+14 4.10622e+14 5.78886e+14 6.26943e+14 4.57533e+14 4.73033e+14 4.12135e+14 3.58509e+14 3.22114e+14 3.17156e+14
threshold=0 1 51.500000000000007 2 3 2007.5000000000002 1997.5000000000002 4 5 47.500000000000007 6 7 74.500000000000014 32.500000000000007
decision_type=5 5 2 5 5 2 2 5 5 2 5 1 2 2
left_child=2 -2 -1 4 -3 6 8 13 9 -5 -7 -12 -10 -8
right_child=1 3 -4 5 -6 10 7 -9 12 -11 11 -13 -14 -15
leaf_value=20176.330306541317 -66122.97664873609 182912.84032169648 414814.84077148442 105280.9689737216 21602.165245539334 -140525.23007507325 95094.208132102271 24470.888264990688 -8057.0708327111997 633977.24437500001 19462.627643533484 -81571.356055961776 -409855.16875000001 294971.00804993877
leaf_count=59 1138 316 64 110 1989 374 165 963 8375 20 826 611 20 153
internal_value=0 -18318.4 2.08561e+06 34670.8 444114 -46881.4 33873.8 660666 -60310.4 1.73289e+06 -484405 -233338 -90035.8 1.8543e+06
internal_count=15183 15060 123 13922 2305 11617 9806 1281 8525 130 1811 1437 8395 318
cat_boundaries=0 4 5 6 10 14 18 23 24
cat_threshold=0 0 8390656 16384 2 1540402562 2048 33579146 1208586276 268435617 404754448 2684616832 709001345 109051904 0 2228288 0 1 10505217 64 608174088 128 32 2
shrinkage=0.1


Tree=29
num_leaves=15
num_cat=7
split_feature=8 2 8 0 8 4 8 1 5 0 0 5 5 8
split_gain=5.06364e+14 4.77975e+14 4.89587e+14 4.3751e+14 3.27957e+14 3.40792e+14 3.40865e+14 3.39538e+14 3.1162e+14 2.88269e+14 2.69767e+14 2.48757e+14 2.35677e+14 1.62506e+14
threshold=0 1 2 173.00000000000003 3 4 5 86.500000000000014 1986.5000000000002 77.500000000000014 86.500000000000014 2010.5000000000002 2007.5000000000002 6
decision_type=5 1 5 2 5 5 5 2 2 2 2 2 2 5
left_child=8 2 9 4 10 13 7 -7 -1 -2 -3 -11 -8 -6
right_child=1 3 -4 -5 5 6 12 -9 -10 11 -12 -13 -14 -15
leaf_value=137857.79822287822 77997.614981667342 -38293.621870397787 11263.554609444882 444816.71726190479 5301.1261164787875 51429.530978785966 10640.059095829347 447808.25113636372 566971.80390625005 366451.13616307219 -196769.64498755534 63842.500603693181 -46963.478337586479 -39785.259877958219
leaf_count=110 607 2173 2584 21 1133 1221 3441 22 20 71 113 44 895 2728
internal_value=0 -17501.2 317821 -112062 -120324 -37720.1 120285 579786 1.89313e+06 1.0406e+06 -459264 2.5067e+06 -12470.9 -265753
internal_count=15183 15053 3306 11747 11726 9440 5579 1243 130 722 2286 115 4336 3861
cat_boundaries=0 5 194 199 204 206 210 214
cat_threshold=0 0 8390656 536870912 1 0 0 0 0 0 0 0 0 0 0 0 0 0 0 0 0 0 0 0 0 0 0 0 0 0 0 0 0 0 0 0 0 0 0 0 0 0 0 0 0 0 0 0 0 0 0 0 0 0 0 0 0 0 0 0 0 0 0 0 0 0 0 0 0 0 0 0 0 0 0 0 0 0 0 0 0 0 0 0 0 0 0 0 0 0 0 0 0 0 0 0 0 0 0 0 0 0 0 0 0 0 0 0 0 0 0 0 0 0 0 0 0 0 0 0 0 0 0 0 0 0 0 0 0 0 0 0 0 0 0 0 0 0 0 0 0 0 0 0 0 0 0 0 0 0 0 0 0 0 0 0 0 0 0 0 0 0 0 0 0 0 0 0 0 0 0 0 0 0 0 0 0 0 0 0 0 0 0 0 0 0 0 0 0 0 0 0 0 1610612736 268701952 721582150 671621204 109056160 128 582108354 570425348 84033792 87196672 8364 19661365 1 17315840 2150632576 3355971595 3523490545 1141112841 5346888 541425706 1074360352
shrinkage=0.1


Tree=30
num_leaves=15
num_cat=8
split_feature=0 8 2 8 8 0 0 5 4 0 3 0 8 8
split_gain=4.60657e+14 4.92234e+14 4.06745e+14 6.76218e+14 4.55644e+14 8.83831e+14 8.35279e+14 3.70516e+14 2.47579e+14 3.77726e+14 2.4619e+14 2.29229e+14 2.06469e+14 1.99866e+14
threshold=38.500000000000007 0 1 2 3 124.50000000000001 147.00000000000003 2013.5000000000002 4 84.500000000000014 5 86.500000000000014 6 7
decision_type=2 5 1 5 5 2 2 2 5 2 5 2 5 5
left_child=-1 7 3 8 5 -4 13 10 -3 -10 -2 -12 -5 -6
right_child=1 2 4 12 6 -7 -8 -9 9 -11 11 -13 -14 -15
leaf_value=-28727.401158246434 -15662.144662159888 44210.711750102491 -54994.020606671205 44434.041683924064 33493.993025767537 -725582.45343750005 591892.13906249998 519061.22812500002 117319.92103718892 351007.67041730182 139845.51029052734 465534.46757812501 -6089.82327991701 -11554.196987068346
leaf_count=4080 106 414 1137 1180 1336 20 24 24 442 82 128 26 2523 3661
internal_value=0 105658 70798.2 294204 -97231.7 -660153 33537.8 1.38248e+06 1.04835e+06 1.51008e+06 1.08413e+06 1.82952e+06 100864 5338.12
internal_count=15183 11103 10819 4641 6178 1157 5021 284 938 524 260 154 3703 4997
cat_boundaries=0 5 194 198 203 204 205 210 215
cat_threshold=0 2097152 8390660 536887297 1 0 0 0 0 0 0 0 0 0 0 0 0 0 0 0 0 0 0 0 0 0 0 0 0 0 0 0 0 0 0 0 0 0 0 0 0 0 0 0 0 0 0 0 0 0 0 0 0 0 0 0 0 0 0 0 0 0 0 0 0 0 0 0 0 0 0 0 0 0 0 0 0 0 0 0 0 0 0 0 0 0 0 0 0 0 0 0 0 0 0 0 0 0 0 0 0 0 0 0 0 0 0 0 0 0 0 0 0 0 0 0 0 0 0 0 0 0 0 0 0 0 0 0 0 0 0 0 0 0 0 0 0 0 0 0 0 0 0 0 0 0 0 0 0 0 0 0 0 0 0 0 0 0 0 0 0 0 0 0 0 0 0 0 0 0 0 0 0 0 0 0 0 0 0 0 0 0 0 0 0 0 0 0 0 0 0 0 0 1879048192 805568768 696412742 671690850 268705960 974406786 167905604 603980032 288882824 8364 626980 142 1245843460 2181338160 33735832 243335172 136 86515728 2149093512 3494125610 3359904288 2
shrinkage=0.1


Tree=31
num_leaves=15
num_cat=9
split_feature=4 8 1 8 5 8 0 5 8 8 7 1 2 8
split_gain=4.1706e+14 6.64419e+14 3.56599e+14 3.81539e+14 3.35694e+14 5.85407e+14 5.17404e+14 4.2363e+14 4.74851e+14 4.09099e+14 3.0456e+14 2.53607e+14 2.34963e+14 2.56423e+14
threshold=0 1 96.500000000000014 2 2007.5000000000002 3 78.500000000000014 1997.5000000000002 4 5 6 74.500000000000014 7 8
decision_type=5 5 2 5 2 5 2 2 5 5 1 2 1 5
left_child=1 -1 3 -3 5 6 -2 11 -9 -6 -11 12 -7 -14
right_child=4 2 -4 -5 9 7 -8 8 -10 10 -12 -13 13 -15
leaf_value=195320.1172849545 130143.00786406251 -64699.115750842437 362955.78348958335 37300.5416736072 -132073.17267680325 -46441.696110224962 677951.58687500004 181415.17307600056 21893.888860535229 19005.124463781489 -73613.345309040364 -357807.89694940479 29928.59836069218 -12830.746521607391
leaf_count=232 125 456 30 1722 420 1473 20 218 1080 829 621 21 1808 6128
internal_value=0 378004 204434 158194 -72475.6 -5222.13 1.92432e+06 -33064.8 502519 -463904 -205196 -106821 -99073.2 -30638
internal_count=15183 2440 2208 2178 12743 10873 145 10728 1298 1870 1450 9430 9409 7936
cat_boundaries=0 2 6 11 14 18 23 24 213 218
cat_threshold=1540402562 256 2048 8194 1216909348 268451968 36963328 671613312 2197946512 1107296512 128 0 2097216 41943040 402657280 2684616832 675414144 75497472 10505248 64 2755657736 33554560 32 2 0 0 0 0 0 0 0 0 0 0 0 0 0 0 0 0 0 0 0 0 0 0 0 0 0 0 0 0 0 0 0 0 0 0 0 0 0 0 0 0 0 0 0 0 0 0 0 0 0 0 0 0 0 0 0 0 0 0 0 0 0 0 0 0 0 0 0 0 0 0 0 0 0 0 0 0 0 0 0 0 0 0 0 0 0 0 0 0 0 0 0 0 0 0 0 0 0 0 0 0 0 0 0 0 0 0 0 0 0 0 0 0 0 0 0 0 0 0 0 0 0 0 0 0 0 0 0 0 0 0 0 0 0 0 0 0 0 0 0 0 0 0 0 0 0 0 0 0 0 0 0 0 0 0 0 0 0 0 0 0 0 0 0 0 0 0 0 0 0 0 0 0 0 0 0 0 0 0 0 0 0 0 0 0 0 0 0 0 50331648 1897136129 1073874488 2148337770 1375752353 1
shrinkage=0.1


Tree=32
num_leaves=15
num_cat=7
split_feature=3 8 0 0 0 3 8 0 1 2 8 0 5 7
split_gain=4.01617e+14 4.32399e+14 6.51301e+14 3.19519e+14 2.34502e+14 2.32708e+14 2.85433e+14 5.15105e+14 2.32376e+14 2.24964e+14 2.73755e+14 2.9447e+14 2.05553e+14 6.03514e+14
threshold=0 1 143.50000000000003 55.500000000000007 30.500000000000004 2 3 82.500000000000014 36.500000000000007 4 5 77.500000000000014 2007.5000000000002 6
decision_type=5 5 2 2 2 5 5 2 2 1 5 2 2 1
left_child=-1 2 3 -2 -3 8 -7 -8 -5 10 11 -6 -11 -14
right_child=1 4 -4 5 9 6 7 -9 -10 12 -12 -13 13 -15
leaf_value=-56659.033431560303 8552.9053403071794 -81997.587975948118 613713.65500000003 181888.44143880208 52253.343197007613 -14714.368733203126 101247.94926335893 349624.79518790409 -19467.252938897076 -186.02580665249181 3504.2419644922375 238104.07952641754 11129.13786544006 -105484.6049174709
leaf_count=1145 1282 363 20 72 704 115 298 116 281 7109 1759 97 1057 765
internal_value=0 46850.4 454667 404249 -28606.2 867514 1.27809e+06 1.66812e+06 210074 -3631.74 257126 738378 -78575.9 -378333
internal_count=15183 14038 2184 2164 11854 882 529 414 353 11491 2560 801 8931 1822
cat_boundaries=0 1 6 7 11 200 205 206
cat_threshold=2 536870912 539032288 1082407014 805401121 1 310292 536870912 536871424 2 268435456 0 0 0 0 0 0 0 0 0 0 0 0 0 0 0 0 0 0 0 0 0 0 0 0 0 0 0 0 0 0 0 0 0 0 0 0 0 0 0 0 0 0 0 0 0 0 0 0 0 0 0 0 0 0 0 0 0 0 0 0 0 0 0 0 0 0 0 0 0 0 0 0 0 0 0 0 0 0 0 0 0 0 0 0 0 0 0 0 0 0 0 0 0 0 0 0 0 0 0 0 0 0 0 0 0 0 0 0 0 0 0 0 0 0 0 0 0 0 0 0 0 0 0 0 0 0 0 0 0 0 0 0 0 0 0 0 0 0 0 0 0 0 0 0 0 0 0 0 0 0 0 0 0 0 0 0 0 0 0 0 0 0 0 0 0 0 0 0 0 0 0 0 0 0 0 0 0 0 0 0 0 0 0 0 0 0 0 0 1610612736 1476677892 2340552726 671678608 109448320 128 2
shrinkage=0.1


Tree=33
num_leaves=15
num_cat=6
split_feature=4 0 8 1 0 2 0 8 3 0 8 5 5 5
split_gain=3.68877e+14 5.41683e+14 4.83497e+14 6.2655e+14 2.6434e+14 2.42397e+14 2.53104e+14 2.45934e+14 2.1962e+14 2.55483e+14 2.16026e+14 1.97432e+14 1.39656e+14 2.45023e+14
threshold=0 165.50000000000003 1 57.500000000000007 116.50000000000001 2 99.500000000000014 3 4 54.500000000000007 5 1960.5000000000002 2013.5000000000002 2010.5000000000002
decision_type=5 2 5 2 2 1 2 5 5 2 5 2 2 2
left_child=4 2 3 11 -1 7 10 8 -4 -10 -7 -2 13 -13
right_child=1 -3 5 -5 -6 6 -8 -9 9 -11 -12 12 -14 -15
leaf_value=-31612.357275858216 131267.26436110516 491783.45874660322 -18764.019308377683 256691.46898756098 -325462.63861989672 17437.884050739143 -196836.30386043596 -2228.2859687332825 19967.853890471764 104916.43669444542 -34009.74748151785 27163.458324792686 179187.30463169643 -176199.83248487907
leaf_count=2454 196 23 477 141 31 1175 81 5094 752 669 2638 1334 56 62
internal_value=0 69196.6 60452.9 540678 -351367 -18946.4 -218590 92393.1 398673 595422 -181993 370598 243431 181316
internal_count=15183 12698 12675 1789 2485 10886 3894 6992 1898 1421 3813 1648 1452 1396
cat_boundaries=0 1 6 195 199 200 205
cat_threshold=60 16785424 134244874 1621891086 839200865 1 0 0 0 0 0 0 0 0 0 0 0 0 0 0 0 0 0 0 0 0 0 0 0 0 0 0 0 0 0 0 0 0 0 0 0 0 0 0 0 0 0 0 0 0 0 0 0 0 0 0 0 0 0 0 0 0 0 0 0 0 0 0 0 0 0 0 0 0 0 0 0 0 0 0 0 0 0 0 0 0 0 0 0 0 0 0 0 0 0 0 0 0 0 0 0 0 0 0 0 0 0 0 0 0 0 0 0 0 0 0 0 0 0 0 0 0 0 0 0 0 0 0 0 0 0 0 0 0 0 0 0 0 0 0 0 0 0 0 0 0 0 0 0 0 0 0 0 0 0 0 0 0 0 0 0 0 0 0 0 0 0 0 0 0 0 0 0 0 0 0 0 0 0 0 0 0 0 0 0 0 0 0 0 0 0 0 0 0 2013265920 1611141380 597886180 134471760 2357215236 2245126 208683044 2151583792 2285994001 1073744528 64
shrinkage=0.1


Tree=34
num_leaves=15
num_cat=7
split_feature=3 8 0 5 8 0 0 5 8 8 0 7 0 8
split_gain=3.16198e+14 5.10567e+14 8.15078e+14 4.25011e+14 2.96107e+14 3.07715e+14 2.6822e+14 2.67444e+14 4.13852e+14 2.6792e+14 2.61766e+14 2.11816e+14 1.81715e+14 1.68313e+14
threshold=0 1 102.50000000000001 2008.5000000000002 2 127.50000000000001 89.500000000000014 2008.5000000000002 3 4 135.50000000000003 5 52.500000000000007 6
decision_type=5 5 2 2 5 2 2 2 5 5 2 1 2 5
left_child=4 2 7 -4 6 -6 -1 8 12 11 13 -9 -2 -3
right_child=1 10 3 -5 5 -7 -8 9 -10 -11 -12 -13 -14 -15
leaf_value=-56322.507819956285 102274.7842948718 23466.006124649808 586218.66096075147 146233.75876358696 -10332.547300617038 356491.0524456522 -274315.12338541669 150610.15752667683 44091.669535799731 -139524.47451902635 -261915.83503289474 -167948.83950892859 377778.73589497228 -7837.9027057197527
leaf_count=952 39 2398 42 46 3993 23 60 82 1302 137 38 28 62 5981
internal_value=0 101664 593504 3.56227e+06 -204717 -82112.7 -685694 438767 607693 -520754 -478.859 637289 2.46946e+06 11396.7
internal_count=15183 10155 1738 88 5028 4016 1012 1650 1403 247 8417 110 101 8379
cat_boundaries=0 1 6 11 14 16 17 22
cat_threshold=2361382 538974224 538983140 545531971 637563905 1 947917968 2622148 607125569 77616392 133 0 64 545259520 2099216 4 2 1544298496 2291844122 404750344 1216414432 128
shrinkage=0.1


Tree=35
num_leaves=15
num_cat=7
split_feature=0 2 8 8 0 0 4 0 6 8 0 8 0 3
split_gain=3.0797e+14 3.12074e+14 6.22056e+14 4.11922e+14 1.63321e+15 9.1037e+14 1.93776e+14 2.64642e+14 1.84573e+14 1.81243e+14 2.44829e+14 1.7854e+14 1.69193e+14 1.58594e+14
threshold=37.500000000000007 0 1 2 126.50000000000001 127.50000000000001 3 82.500000000000014 3.5000000000000004 4 103.50000000000001 5 78.500000000000014 6
decision_type=2 1 5 5 2 2 5 2 2 5 2 5 2 5
left_child=-1 2 6 4 13 11 12 -8 -7 10 -4 -5 -2 -3
right_child=1 3 9 5 -6 8 7 -9 -10 -11 -12 -13 -14 -15
leaf_value=-28139.511396072219 64249.99552076387 74153.246582831707 -23523.468479398267 -54529.448969245226 916214.90041852696 -686734.93087797624 106584.55914350141 282255.5129730801 -276685.05706521741 19692.05145657972 -361613.62144886365 -7142.3617066429597 -161329.87654138514 3826.7907410112093
leaf_count=3095 328 478 811 961 21 21 449 106 23 3433 22 4446 37 952
internal_value=0 72134.4 257211 -67203.4 404577 -193297 998713 1.37656e+06 -4.72391e+06 95338.4 -320677 -156786 402794 278798
internal_count=15183 12088 5186 6902 1451 5451 920 555 44 4266 833 5407 365 1430
cat_boundaries=0 189 194 199 200 205 210 211
cat_threshold=0 0 0 0 0 0 0 0 0 0 0 0 0 0 0 0 0 0 0 0 0 0 0 0 0 0 0 0 0 0 0 0 0 0 0 0 0 0 0 0 0 0 0 0 0 0 0 0 0 0 0 0 0 0 0 0 0 0 0 0 0 0 0 0 0 0 0 0 0 0 0 0 0 0 0 0 0 0 0 0 0 0 0 0 0 0 0 0 0 0 0 0 0 0 0 0 0 0 0 0 0 0 0 0 0 0 0 0 0 0 0 0 0 0 0 0 0 0 0 0 0 0 0 0 0 0 0 0 0 0 0 0 0 0 0 0 0 0 0 0 0 0 0 0 0 0 0 0 0 0 0 0 0 0 0 0 0 0 0 0 0 0 0 0 0 0 0 0 0 0 0 0 0 0 0 0 0 0 0 0 0 0 0 0 0 0 0 0 1879048192 805568512 690104900 680073286 268722345 1 85991424 2685931656 3502506051 3896791568 3 33624228 3179536 524425 1416626177 2151678466 100 973342082 50465284 604510468 285769736 8200 59728
shrinkage=0.1


Tree=36
num_leaves=15
num_cat=7
split_feature=4 0 3 6 8 0 5 8 1 2 0 0 8 4
split_gain=2.84971e+14 3.29343e+14 2.44107e+14 2.37382e+14 2.81109e+14 4.99582e+14 2.04226e+14 2.00197e+14 2.50515e+14 1.92659e+14 1.89105e+14 1.74478e+14 1.50803e+14 1.47276e+14
threshold=0 100.50000000000001 1 1.5000000000000002 2 106.50000000000001 1956.5000000000002 3 63.500000000000007 4 93.500000000000014 53.500000000000007 5 6
decision_type=5 2 5 2 5 2 2 5 2 1 2 2 5 5
left_child=1 6 -2 7 5 -5 -1 11 -9 10 -6 -4 -11 -14
right_child=2 -3 3 4 9 -7 -8 8 -10 12 -12 -13 13 -15
leaf_value=308159.03599137929 -46262.769606141788 374045.51356907899 18869.248929059944 35835.767641677776 -29971.603230083001 311918.93351907172 26202.632756727431 -23894.452090666298 -288934.22013888892 -62010.412736341685 -242220.9295276989 303903.78948863636 48721.090298935465 5277.3693346211767
leaf_count=29 1137 38 901 1814 913 68 225 3804 36 278 44 22 918 4956
internal_value=0 961786 -19405.5 17543.8 113176 455690 583945 -162942 -263107 21828.6 -393193 253881 86922.4 121381
internal_count=15183 292 14891 13754 8991 1882 254 4763 3840 7109 957 923 6152 5874
cat_boundaries=0 1 2 7 11 200 205 206
cat_threshold=1343236224 2 606652672 2172711488 545327184 3758383168 1 407113728 672535718 438317093 302060176 0 0 0 0 0 0 0 0 0 0 0 0 0 0 0 0 0 0 0 0 0 0 0 0 0 0 0 0 0 0 0 0 0 0 0 0 0 0 0 0 0 0 0 0 0 0 0 0 0 0 0 0 0 0 0 0 0 0 0 0 0 0 0 0 0 0 0 0 0 0 0 0 0 0 0 0 0 0 0 0 0 0 0 0 0 0 0 0 0 0 0 0 0 0 0 0 0 0 0 0 0 0 0 0 0 0 0 0 0 0 0 0 0 0 0 0 0 0 0 0 0 0 0 0 0 0 0 0 0 0 0 0 0 0 0 0 0 0 0 0 0 0 0 0 0 0 0 0 0 0 0 0 0 0 0 0 0 0 0 0 0 0 0 0 0 0 0 0 0 0 0 0 0 0 0 0 0 0 0 0 0 0 0 0 0 0 0 0 33554432 9438336 0 2097408 32896 40 14778689
shrinkage=0.1


Tree=37
num_leaves=15
num_cat=7
split_feature=4 0 8 0 0 1 5 8 5 8 7 8 8 0
split_gain=2.55589e+14 4.27508e+14 3.22932e+14 4.37983e+14 1.93735e+14 1.69843e+14 1.68178e+14 4.37736e+14 3.47597e+14 2.52424e+14 2.49531e+14 2.27241e+14 1.40577e+14 2.12487e+14
threshold=0 165.50000000000003 1 88.500000000000014 129.50000000000003 54.500000000000007 2006.5000000000002 2 1997.5000000000002 3 4 5 6 116.50000000000001
decision_type=5 2 5 2 2 2 2 5 2 5 1 5 5 2
left_child=12 2 3 -2 6 -5 8 10 9 -4 -8 -10 -1 -14
right_child=1 -3 4 5 -6 -7 7 -9 11 -11 -12 -13 13 -15
leaf_value=3011.0274711502352 31285.648716464028 456728.20446428575 141704.94455320213 475607.47130681819 -218139.54931402439 170766.85693178533 35709.189772871774 -76184.00988403002 12888.499062376795 -5236.9062439127347 -44968.978979366133 93592.653596651653 -41562.707948011703 -335296.52325000003
leaf_count=921 1555 21 109 22 41 108 1127 950 743 6657 581 669 1654 25
internal_value=0 59069.7 51580.3 457554 -11720.6 2.22355e+06 -3522.04 -222044 67501.7 -26679.8 82172.8 518799 -284766 -456644
internal_count=15183 12583 12562 1685 10877 130 10836 2658 8178 6766 1708 1412 2600 1679
cat_boundaries=0 1 6 10 14 15 20 24
cat_threshold=524348 8212 134244874 1621628942 33894561 3 38312778 2197815588 1065216 2150629380 0 2097216 0 268435456 2 1077952513 260 319947264 2228492 68 1147146561 2420117504 134587698 137372208
shrinkage=0.1


Tree=38
num_leaves=15
num_cat=7
split_feature=3 8 0 8 4 1 0 4 0 8 0 1 0 8
split_gain=2.2136e+14 4.74831e+14 7.68876e+14 2.78791e+14 2.78635e+14 2.56632e+14 2.24457e+14 1.8983e+14 1.71991e+14 1.40382e+14 2.70386e+14 1.86034e+14 1.37613e+14 1.20686e+14
threshold=0 1 115.50000000000001 2 3 102.50000000000001 97.500000000000014 4 68.500000000000014 5 106.50000000000001 73.500000000000014 135.50000000000003 6
decision_type=5 5 2 5 5 2 2 5 2 5 2 2 2 5
left_child=3 2 -2 4 6 9 -1 -5 -6 10 -3 -11 13 -9
right_child=1 5 -4 7 8 -7 -8 12 -10 11 -12 -13 -14 -15
leaf_value=-27707.552361802049 59303.03669771261 -18093.472255507288 491111.89832139132 60289.08658248547 -70860.016326431345 -355719.76265625004 294451.32485795458 22986.261229346681 -204611.8706223456 11531.026703129502 -350203.11800000002 195461.34276646207 -208783.61152935607 -10032.232844593518
leaf_count=1275 1005 1262 43 463 271 20 22 1339 149 3050 25 56 33 6170
internal_value=0 161085 762924 -90324 -454774 16757.9 -220728 -11682.9 -1.15559e+06 33067.2 -243555 147996 -50159.7 -41271.5
internal_count=15183 5461 1048 9722 1717 4413 1297 8005 420 4393 1287 3106 7542 7509
cat_boundaries=0 1 6 11 12 13 17 21
cat_threshold=3033662 539506688 806384358 10494152 109056000 129 9319552 537395910 85983232 75792640 8445 1107482272 26487042 235931202 6357000 4899122 274202830 201326592 136388616 13473826 1346912430
shrinkage=0.1


Tree=39
num_leaves=15
num_cat=7
split_feature=0 2 8 8 0 0 0 8 0 0 4 3 8 0
split_gain=2.11883e+14 2.40198e+14 4.45439e+14 3.25156e+14 5.19459e+14 2.98012e+14 2.88895e+14 2.01916e+14 4.21215e+14 3.71796e+14 1.33174e+14 1.32669e+14 1.91898e+14 1.3462e+14
threshold=38.500000000000007 0 1 2 101.50000000000001 147.00000000000003 122.50000000000001 3 126.50000000000001 106.50000000000001 4 5 6 97.500000000000014
decision_type=2 1 5 5 2 2 2 5 2 2 5 5 5 2
left_child=-1 2 6 4 -3 7 -2 9 10 -5 -9 13 -13 -4
right_child=1 3 11 5 -6 -7 -8 8 -10 -11 -12 12 -14 -15
leaf_value=-19469.410348150592 80943.174566319663 -69580.333653291164 -30704.739890353198 25571.333188608533 -582286.6645833333 331482.41851851856 432981.09254557296 46349.254879342479 -458214.30752883182 407499.92487980775 -14474.714526424877 53682.873499743524 1708.3534429595229 -296459.41375000001
leaf_count=4080 812 335 406 1295 21 27 24 384 21 26 4222 980 2530 20
internal_value=0 71793.2 240919 -55977.6 -970968 70.1987 899733 -14976.5 -113474 328399 -93346.5 99062.2 163310 -421911
internal_count=15183 11103 4772 6331 356 5975 836 5948 4627 1321 4606 3936 3510 426
cat_boundaries=0 189 194 199 204 205 206 211
cat_threshold=0 0 0 0 0 0 0 0 0 0 0 0 0 0 0 0 0 0 0 0 0 0 0 0 0 0 0 0 0 0 0 0 0 0 0 0 0 0 0 0 0 0 0 0 0 0 0 0 0 0 0 0 0 0 0 0 0 0 0 0 0 0 0 0 0 0 0 0 0 0 0 0 0 0 0 0 0 0 0 0 0 0 0 0 0 0 0 0 0 0 0 0 0 0 0 0 0 0 0 0 0 0 0 0 0 0 0 0 0 0 0 0 0 0 0 0 0 0 0 0 0 0 0 0 0 0 0 0 0 0 0 0 0 0 0 0 0 0 0 0 0 0 0 0 0 0 0 0 0 0 0 0 0 0 0 0 0 0 0 0 0 0 0 0 0 0 0 0 0 0 0 0 0 0 0 0 0 0 0 0 0 0 0 0 0 0 0 0 1879048192 805568768 153233476 545331228 268722345 129 939786240 131076 603982084 268435456 8200 83927040 2149093513 3502506019 3359920640 3 13117705 3162114 1207961652 3766534834 582882 67588 8
shrinkage=0.1


Tree=40
num_leaves=15
num_cat=5
split_feature=4 0 5 1 0 3 8 8 5 0 0 8 5 0
split_gain=2.004e+14 2.17777e+14 2.07644e+14 1.79582e+14 2.58543e+14 1.8012e+14 2.62979e+14 2.32837e+14 1.65919e+14 1.63004e+14 1.5011e+14 1.44946e+14 1.56926e+14 1.43559e+14
threshold=0 101.50000000000001 1957.5000000000002 147.00000000000003 165.50000000000003 1 2 3 2004.5000000000002 82.500000000000014 129.50000000000003 4 2003.5000000000002 86.500000000000014
decision_type=5 2 2 2 2 5 5 5 2 2 2 5 2 2
left_child=1 2 -1 4 5 6 9 13 -3 -2 -9 12 -8 -7
right_child=3 8 -4 -5 -6 7 11 10 -10 -11 -12 -13 -14 -15
leaf_value=214764.37836829876 17006.65326087394 467988.74281249999 15003.574751227457 -294605.47306547622 348660.83244047622 32842.007178854452 -59621.553330180926 -799.11512125528679 122983.01428328804 236668.666015625 -217778.06834716798 -24018.705022985789 -209424.98359375002 155738.31405484068
leaf_count=58 971 20 506 21 21 1395 475 8812 46 35 32 2607 82 102
internal_value=0 547893 355464 -23847.3 -19640.9 -24715 -199888 46072.1 2.2753e+06 244064 -15824.1 -341367 -802347 409422
internal_count=15183 630 564 14553 14532 14511 4170 10341 66 1006 8844 3164 557 1497
cat_boundaries=0 1 2 7 12 17
cat_threshold=1485843584 2097190 1124073729 3390391312 3246987296 1073742391 8 134221840 137896 547760131 1778480193 1 679510064 2097864 3145729 100679744 133
shrinkage=0.1


Tree=41
num_leaves=15
num_cat=8
split_feature=2 4 5 8 8 1 0 4 0 5 7 8 8 0
split_gain=1.78748e+14 2.38201e+14 2.58986e+14 2.27308e+14 1.87541e+14 2.32487e+14 2.28556e+14 1.83932e+14 1.47492e+14 1.42182e+14 4.6998e+14 3.70053e+14 2.446e+14 2.41633e+14
threshold=0 1 2006.5000000000002 2 3 83.500000000000014 160.50000000000003 4 81.500000000000014 2008.5000000000002 5 6 7 92.500000000000014
decision_type=1 5 2 5 5 2 2 5 2 2 1 5 5 2
left_child=3 2 8 -1 5 7 9 -3 -2 12 11 -11 13 -6
right_child=1 4 -4 -5 6 -7 -8 -9 -10 10 -12 -13 -14 -15
leaf_value=31296.965829394579 153590.95176091272 68883.247605359749 24083.843971706083 -42926.093571030178 84605.086500726757 291275.98542702419 -293833.3164351852 6909.6464125514312 429429.96875 102386.98427590198 -96556.919204622303 -20533.612797447553 1005.9603792363523 458165.77437500004
leaf_count=532 63 653 148 1761 129 33 27 1754 28 303 647 1117 7968 20
internal_value=0 45998.3 1.01465e+06 -256444 26911.9 275389 -32675 240375 2.38464e+06 -25003.6 -259151 62716.5 34622.3 1.26273e+06
internal_count=15183 12890 239 2293 12651 2440 10211 2407 91 10184 2067 1420 8117 149
cat_boundaries=0 189 190 195 200 201 202 205 208
cat_threshold=0 0 0 0 0 0 0 0 0 0 0 0 0 0 0 0 0 0 0 0 0 0 0 0 0 0 0 0 0 0 0 0 0 0 0 0 0 0 0 0 0 0 0 0 0 0 0 0 0 0 0 0 0 0 0 0 0 0 0 0 0 0 0 0 0 0 0 0 0 0 0 0 0 0 0 0 0 0 0 0 0 0 0 0 0 0 0 0 0 0 0 0 0 0 0 0 0 0 0 0 0 0 0 0 0 0 0 0 0 0 0 0 0 0 0 0 0 0 0 0 0 0 0 0 0 0 0 0 0 0 0 0 0 0 0 0 0 0 0 0 0 0 0 0 0 0 0 0 0 0 0 0 0 0 0 0 0 0 0 0 0 0 0 0 0 0 0 0 0 0 0 0 0 0 0 0 0 0 0 0 0 0 0 0 0 0 0 0 50331648 1217406976 86003728 2161142976 1207992513 2185365000 2 1073741824 1627403836 13318200 1954566148 1 54658386 2 38012930 0 4 0 131136 536870912
shrinkage=0.1


Tree=42
num_leaves=15
num_cat=8
split_feature=2 4 8 0 8 0 0 4 8 0 8 5 7 0
split_gain=1.71078e+14 2.0278e+14 1.89738e+14 2.17474e+14 1.5627e+14 3.70407e+14 3.32258e+14 1.77453e+14 2.47158e+14 3.52375e+14 1.41882e+14 2.50203e+14 1.41576e+14 1.38203e+14
threshold=0 1 2 75.500000000000014 3 147.00000000000003 127.50000000000001 4 5 88.500000000000014 6 2008.5000000000002 7 91.500000000000014
decision_type=1 5 5 2 5 2 2 5 5 2 5 2 1 2
left_child=1 13 3 -3 6 7 -2 10 9 -9 11 -6 -13 -1
right_child=4 2 -4 -5 5 -7 -8 8 -10 -11 -12 12 -14 -15
leaf_value=72562.588260536999 -28067.409399892891 -9857.6029134347118 26997.132226631704 -164834.1747521034 -36408.056392342922 356142.3768318966 -419089.44261363638 46427.622982663808 1744.2428047281373 329779.39141930116 -6529.3331908666587 -67686.877382812498 -355064.58187500003 271186.52300292969
leaf_count=282 1775 700 2195 104 1011 29 22 663 5192 47 3053 30 40 40
internal_value=0 200528 117932 -295369 -55928.1 -7303.48 -326727 -17622.9 93631.1 642794 -176257 -486175 -2.31903e+06 943076
internal_count=15183 3321 2999 804 11862 10065 1797 10036 5902 710 4134 1081 70 322
cat_boundaries=0 189 190 195 200 202 207 211 212
cat_threshold=0 0 0 0 0 0 0 0 0 0 0 0 0 0 0 0 0 0 0 0 0 0 0 0 0 0 0 0 0 0 0 0 0 0 0 0 0 0 0 0 0 0 0 0 0 0 0 0 0 0 0 0 0 0 0 0 0 0 0 0 0 0 0 0 0 0 0 0 0 0 0 0 0 0 0 0 0 0 0 0 0 0 0 0 0 0 0 0 0 0 0 0 0 0 0 0 0 0 0 0 0 0 0 0 0 0 0 0 0 0 0 0 0 0 0 0 0 0 0 0 0 0 0 0 0 0 0 0 0 0 0 0 0 0 0 0 0 0 0 0 0 0 0 0 0 0 0 0 0 0 0 0 0 0 0 0 0 0 0 0 0 0 0 0 0 0 0 0 0 0 0 0 0 0 0 0 0 0 0 0 0 0 0 0 0 0 0 0 1610612736 26477954 1051673 1688001 2420375554 2194473170 64 42337666 35790926 604111108 84967424 8396 19137460 1 16781312 2148533376 2290096130 3221496560 1 292057120 671088785 1242043073 35799424 2
shrinkage=0.1


Tree=43
num_leaves=15
num_cat=8
split_feature=0 8 1 0 4 5 2 8 0 8 3 0 8 8
split_gain=1.67239e+14 1.53522e+14 3.80722e+14 3.66413e+14 1.7198e+14 2.78629e+14 1.58753e+14 2.39857e+14 1.69937e+14 1.68024e+14 1.47269e+14 1.43922e+14 1.08534e+14 8.13399e+13
threshold=26.500000000000004 0 66.500000000000014 165.50000000000003 1 2006.5000000000002 2 3 94.500000000000014 4 5 49.500000000000007 6 7
decision_type=2 5 2 2 5 2 1 5 2 5 5 2 5 5
left_child=-1 2 13 4 5 -3 9 8 -8 11 -11 -6 -9 -2
right_child=1 3 -4 -5 6 -7 7 12 -10 10 -12 -13 -14 -15
leaf_value=-109961.52297345462 -100935.96052688238 354721.14562717016 -382649.28994140628 341231.44365234376 9696.6320924358606 36583.839593349359 -43791.200977812696 36877.493134599848 -233814.9675003986 -25515.933483498509 10144.285420022725 76579.549944753162 -7936.0977920588475 -10964.705739278004
leaf_count=137 117 36 32 32 648 117 1190 638 49 1405 6375 639 3246 522
internal_value=0 10265.2 -453698 32215.4 24696.7 1.04603e+06 12938.2 -127629 -508955 92413.8 36798.7 425734 -4990.55 -291895
internal_count=15183 15046 671 14375 14343 153 14190 5123 1239 9067 7780 1287 3884 639
cat_boundaries=0 5 7 196 201 206 207 211 216
cat_threshold=8389760 131080 603979776 16809984 8308 1074792448 256 0 0 0 0 0 0 0 0 0 0 0 0 0 0 0 0 0 0 0 0 0 0 0 0 0 0 0 0 0 0 0 0 0 0 0 0 0 0 0 0 0 0 0 0 0 0 0 0 0 0 0 0 0 0 0 0 0 0 0 0 0 0 0 0 0 0 0 0 0 0 0 0 0 0 0 0 0 0 0 0 0 0 0 0 0 0 0 0 0 0 0 0 0 0 0 0 0 0 0 0 0 0 0 0 0 0 0 0 0 0 0 0 0 0 0 0 0 0 0 0 0 0 0 0 0 0 0 0 0 0 0 0 0 0 0 0 0 0 0 0 0 0 0 0 0 0 0 0 0 0 0 0 0 0 0 0 0 0 0 0 0 0 0 0 0 0 0 0 0 0 0 0 0 0 0 0 0 0 0 0 0 0 0 0 0 0 0 0 2013265920 1644429568 589300164 17367876 347079972 9 1610612736 16786500 9123852 268783652 1 3145734 152059904 1069056 1084489746 570696336 8388736 0 0 32768 8240
shrinkage=0.1


Tree=44
num_leaves=15
num_cat=5
split_feature=0 1 0 3 8 8 0 5 5 0 8 0 8 1
split_gain=1.4963e+14 1.56364e+14 4.08309e+14 1.53122e+14 2.99811e+14 2.25935e+14 1.97255e+14 1.68985e+14 1.66355e+14 1.38909e+14 1.29881e+14 2.65725e+14 1.13753e+14 1.11814e+14
threshold=39.500000000000007 147.00000000000003 165.50000000000003 0 1 2 86.500000000000014 2007.5000000000002 2007.5000000000002 133.50000000000003 3 109.50000000000001 4 79.500000000000014
decision_type=2 2 2 5 5 5 2 2 2 2 5 2 5 2
left_child=12 2 3 5 6 13 7 -5 -8 -6 11 -7 -1 -2
right_child=1 -3 -4 4 9 10 8 -9 -10 -11 -12 -13 -14 -15
leaf_value=-54408.910179085244 33150.84965930257 -266045.90074404766 402893.72512019234 68223.952371012885 7185.7243514484217 -49832.291105341719 309117.33427220397 -43523.416010832058 70557.344335937509 -212264.83077855606 -10685.000319572118 -411572.99970238097 -8711.1475156940996 261854.41913174719
leaf_count=624 755 21 26 797 5365 615 57 163 60 29 2658 21 3970 22
internal_value=0 65548.7 70965.6 61204 156656 -90683.1 636001 492502 1.86779e+06 59947.7 -205198 -608203 -150556 391229
internal_count=15183 10589 10568 10542 6471 4071 1077 960 117 5394 3294 636 4594 777
cat_boundaries=0 1 6 11 16 21
cat_threshold=2886182 536885264 2111082 8396803 772043808 193 352519168 2164326400 3234027572 1346781700 10 671090688 539492964 2097153 111157384 197 570590224 2130058 2197815366 69484544 132
shrinkage=0.1


Tree=45
num_leaves=15
num_cat=8
split_feature=4 0 8 0 4 0 5 7 5 3 8 8 0 3
split_gain=1.46524e+14 1.87339e+14 1.76206e+14 2.31212e+14 3.06875e+14 2.84434e+14 2.44579e+14 3.27015e+14 2.69199e+14 1.18392e+14 1.89575e+14 1.26645e+14 2.12086e+14 1.13937e+14
threshold=0 165.50000000000003 1 66.500000000000014 2 86.500000000000014 2007.5000000000002 3 1994.5000000000002 4 5 6 97.500000000000014 7
decision_type=5 2 5 2 5 2 2 1 2 5 5 5 2 5
left_child=-1 2 3 13 5 -5 8 -8 -6 11 -11 12 -4 -2
right_child=1 -3 9 4 6 -7 7 -9 -10 10 -12 -13 -14 -15
leaf_value=-21318.292277415487 40011.462445243662 302960.94494047621 -27925.201378516067 106113.91556412338 13808.287261462603 350433.59309329715 254175.84281250002 -197354.34692322533 304789.35199854657 55043.155153127271 -211.92851291864756 -1835.5237562646973 -235712.21173406864 -13309.372422803168
leaf_count=2648 756 21 1334 154 122 69 20 81 43 850 2243 5956 51 835
internal_value=0 45284.8 40312.9 305321 908176 1.73912e+06 140883 -1.07942e+06 896397 -12796.5 151014 -81926.6 -353215 121951
internal_count=15183 12535 12514 2080 489 223 266 101 165 10434 3093 7341 1385 1591
cat_boundaries=0 2 7 8 9 10 15 20 21
cat_threshold=524349 1 16787476 134244930 3768588318 33886257 3 415234 2 286646 1275383840 807961605 16826528 1074790604 196 1348736 538969092 16941472 2097290 236 4198836
shrinkage=0.1


Tree=46
num_leaves=15
num_cat=8
split_feature=0 5 8 5 8 1 8 8 0 8 7 8 1 8
split_gain=1.27214e+14 1.41141e+14 5.41419e+14 4.98407e+14 6.11808e+14 5.0908e+14 4.10066e+14 3.5643e+14 3.56374e+14 1.98734e+14 1.91047e+14 2.40951e+14 1.91068e+14 1.71647e+14
threshold=26.500000000000004 2006.5000000000002 0 1997.5000000000002 1 57.500000000000007 2 3 111.50000000000001 4 5 6 44.500000000000007 7
decision_type=2 2 5 2 5 2 5 5 2 5 1 5 2 5
left_child=-1 3 -3 6 5 -5 -2 -4 9 -8 13 12 -12 -9
right_child=1 2 7 4 -6 -7 8 10 -10 -11 11 -13 -14 -15
leaf_value=-95914.192175382079 177062.65425754126 -129452.97489160667 106303.17997867361 193637.78669483421 38840.186686767258 736192.88630952383 -29319.717893183421 72137.33832504318 -415986.92667410715 4050.6040681857371 -133855.70906593406 -28546.827960693361 -475221.7421875 -8970.6494179028268
leaf_count=137 116 372 262 98 1498 21 2306 327 21 7773 91 990 20 1151
internal_value=0 8859.34 -177010 59328.2 575186 2.6695e+06 -22322.3 -26034.1 -44623.5 -36093.5 -140351 -456241 -1.79217e+06 94014.6
internal_count=15183 15046 3213 11833 1617 119 10216 2841 10100 10079 2579 1101 111 1478
cat_boundaries=0 5 8 11 15 20 21 22 23
cat_threshold=10485760 671088720 2185265160 384 8196 2101248 671088768 1610612736 1048576 64 8388608 32768 2197815334 268455940 2147483648 138449024 2197831846 2049978885 75497604 20 2 4458498 38012930
shrinkage=0.1


Tree=47
num_leaves=15
num_cat=8
split_feature=2 4 8 8 0 1 0 3 8 8 0 0 5 8
split_gain=1.22481e+14 1.5627e+14 1.53386e+14 1.11837e+14 2.30563e+14 1.16233e+14 1.80028e+14 1.12861e+14 2.30831e+14 1.56012e+14 1.06943e+14 9.25075e+13 9.97775e+13 7.51735e+13
threshold=0 1 2 3 165.50000000000003 124.50000000000001 135.50000000000003 4 5 6 62.500000000000007 102.50000000000001 1957.5000000000002 7
decision_type=1 5 5 5 2 2 2 5 5 5 2 2 2 5
left_child=1 11 10 -2 5 6 7 9 -9 -5 -3 12 -1 -4
right_child=3 2 13 4 -6 -7 -8 8 -10 -11 -12 -13 -14 -15
leaf_value=254883.65697115386 -33191.718497461487 26715.054698559685 -36183.312236223865 17307.055459462223 314852.8339758832 238741.28343750001 -265374.34627403849 48850.604148156592 -2987.9573699230568 -20194.515291900501 112016.72319927016 260216.97106481483 50304.734988839286 6343.3621097074756
leaf_count=26 1227 649 552 1464 23 20 26 1132 3468 4502 190 27 287 1590
internal_value=0 169696 95070.6 -47298.9 -14180.4 -21048.5 -25596.2 -19129.1 98471.3 -109784 454903 802580 672985 -47331.1
internal_count=15183 3321 2981 11862 10635 10612 10592 10566 4600 5966 839 340 313 2142
cat_boundaries=0 189 190 195 200 201 206 210 215
cat_threshold=0 0 0 0 0 0 0 0 0 0 0 0 0 0 0 0 0 0 0 0 0 0 0 0 0 0 0 0 0 0 0 0 0 0 0 0 0 0 0 0 0 0 0 0 0 0 0 0 0 0 0 0 0 0 0 0 0 0 0 0 0 0 0 0 0 0 0 0 0 0 0 0 0 0 0 0 0 0 0 0 0 0 0 0 0 0 0 0 0 0 0 0 0 0 0 0 0 0 0 0 0 0 0 0 0 0 0 0 0 0 0 0 0 0 0 0 0 0 0 0 0 0 0 0 0 0 0 0 0 0 0 0 0 0 0 0 0 0 0 0 0 0 0 0 0 0 0 0 0 0 0 0 0 0 0 0 0 0 0 0 0 0 0 0 0 0 0 0 0 0 0 0 0 0 0 0 0 0 0 0 0 0 0 0 0 0 0 0 1610612736 28575106 270582532 696385590 134275157 1276119328 128 8520834 33693710 603980036 83918849 8332 4068910 16791604 3374060096 2424307746 167800960 65 1140850688 268552209 16747144 1342440006 1051664 573825 306446338 2181890242 64
shrinkage=0.1


Tree=48
num_leaves=15
num_cat=7
split_feature=1 0 2 8 4 8 0 5 4 5 1 3 0 8
split_gain=1.31433e+14 2.67854e+14 1.31037e+14 1.94391e+14 1.55716e+14 1.25079e+14 1.48168e+14 1.69498e+14 1.30292e+14 1.18375e+14 1.14739e+14 1.10151e+14 1.19779e+14 9.04892e+13
threshold=147.00000000000003 165.50000000000003 0 1 2 3 76.500000000000014 1955.5000000000002 4 2006.5000000000002 37.500000000000007 5 93.500000000000014 6
decision_type=2 2 1 5 5 5 2 2 5 2 2 5 2 5
left_child=1 2 3 10 9 6 7 -6 -8 -4 -1 -5 -13 -7
right_child=-2 -3 4 11 5 13 8 -9 -10 -11 -12 12 -14 -15
leaf_value=-50501.719656253175 -244224.84985795454 321068.24900841346 174866.77260633683 73543.009986468547 177243.86947848415 -54754.682246461103 2212.4470409292039 9047.170534748846 151880.41703421678 32595.278285920838 -163461.26366264766 -10591.415811070874 -169228.85451211734 -664.58923699458558
leaf_count=308 22 26 90 143 62 309 103 1781 148 167 127 1661 49 10187
internal_value=0 3751.92 -1757.17 -221700 37557.1 21512.4 244055 147054 966020 793312 -816047 -78542.5 -150492 -23075.9
internal_count=15183 15161 15135 2288 12847 12590 2094 1843 251 257 435 1853 1710 10496
cat_boundaries=0 189 194 196 201 202 203 208
cat_threshold=0 0 0 0 0 0 0 0 0 0 0 0 0 0 0 0 0 0 0 0 0 0 0 0 0 0 0 0 0 0 0 0 0 0 0 0 0 0 0 0 0 0 0 0 0 0 0 0 0 0 0 0 0 0 0 0 0 0 0 0 0 0 0 0 0 0 0 0 0 0 0 0 0 0 0 0 0 0 0 0 0 0 0 0 0 0 0 0 0 0 0 0 0 0 0 0 0 0 0 0 0 0 0 0 0 0 0 0 0 0 0 0 0 0 0 0 0 0 0 0 0 0 0 0 0 0 0 0 0 0 0 0 0 0 0 0 0 0 0 0 0 0 0 0 0 0 0 0 0 0 0 0 0 0 0 0 0 0 0 0 0 0 0 0 0 0 0 0 0 0 0 0 0 0 0 0 0 0 0 0 0 0 0 0 0 0 0 0 50331648 1073841156 1660944548 55054348 67109158 4 1217406976 256 1073774592 1073930808 550189096 880824356 1 196896 4300800 8523904 2097152 67108864 0 8240
shrinkage=0.1


Tree=49
num_leaves=15
num_cat=9
split_feature=3 8 8 0 5 8 5 8 1 7 8 1 8 8
split_gain=1.09276e+14 1.29185e+14 1.12768e+14 1.31586e+14 1.12002e+14 4.57585e+14 3.08757e+14 5.11203e+14 7.45929e+14 3.06325e+14 2.11146e+14 2.44995e+14 2.0828e+14 1.57049e+14
threshold=0 1 2 65.500000000000014 2008.5000000000002 3 1993.5000000000002 4 64.500000000000014 5 6 74.500000000000014 7 8
decision_type=5 5 5 2 2 5 2 5 2 1 5 2 5 5
left_child=2 -2 -1 -4 6 -6 10 8 -8 12 -3 13 -7 -12
right_child=1 4 3 -5 5 9 7 -9 -10 -11 11 -13 -14 -15
leaf_value=20587.465839663419 97361.661960827478 90913.038358491045 -35612.261381869153 -163717.26545572918 -151448.95995163691 96684.721157664564 103178.28485875236 15789.708113742545 645946.47847222222 -52469.984481904437 -29508.4230111504 -346936.79776785715 4230.4455628280057 2652.434202505151
leaf_count=320 132 222 735 90 221 291 407 2159 27 854 1978 21 1300 6426
internal_value=0 24609.7 -295374 -489935 14908.3 -169355 58626.8 361288 1.33861e+06 -41406.9 -32133.1 -57945.9 217750 -49490.3
internal_count=15183 14038 1145 825 13906 2666 11240 2593 434 2445 8647 8425 1591 8404
cat_boundaries=0 1 5 9 13 16 17 21 24 29
cat_threshold=2 0 0 8390656 536879104 67116033 428867841 2147516432 135530000 10502144 134217792 570425344 33554560 136359936 2873360528 1644691632 2 1048576 2105416 0 268435456 33818626 4 4 4231168 2197815431 1260950148 77726214 65
shrinkage=0.1


Tree=50
num_leaves=15
num_cat=7
split_feature=0 1 0 2 8 8 3 8 8 0 1 4 0 0
split_gain=1.05442e+14 1.16433e+14 1.95708e+14 1.10708e+14 2.35367e+14 2.11983e+14 1.41491e+14 1.9205e+14 1.75874e+14 1.30972e+14 1.30874e+14 1.15281e+14 1.76589e+14 1.6914e+14
threshold=39.500000000000007 147.00000000000003 165.50000000000003 0 1 2 3 4 5 122.50000000000001 64.500000000000014 6 78.500000000000014 81.500000000000014
decision_type=2 2 2 1 5 5 5 5 5 2 2 5 2 2
left_child=-1 2 3 4 11 9 8 -8 -7 10 -5 12 -2 -13
right_child=1 -3 -4 5 -6 6 7 -9 -10 -11 -12 13 -14 -15
leaf_value=-12615.30350629535 44682.159227272728 -229706.85654761904 280013.17298677884 -52705.487261962895 6431.3539848421233 -43944.969115385604 -15550.523520835635 58904.381065988331 6778.1602057111668 -294186.81354166666 85930.691955236485 72371.99947726485 -188015.53978040541 232045.46108831093
leaf_count=4594 275 21 26 853 3740 907 556 906 2680 21 74 414 37 79
internal_value=0 55257.7 59932.1 53173.9 170674 -36101.7 45642.5 306758 -61340.8 -467399 -416385 657971 165560 960111
internal_count=15183 10589 10568 10542 4545 5997 5049 1462 3587 948 927 805 312 493
cat_boundaries=0 189 194 199 200 204 209 210
cat_threshold=0 0 0 0 0 0 0 0 0 0 0 0 0 0 0 0 0 0 0 0 0 0 0 0 0 0 0 0 0 0 0 0 0 0 0 0 0 0 0 0 0 0 0 0 0 0 0 0 0 0 0 0 0 0 0 0 0 0 0 0 0 0 0 0 0 0 0 0 0 0 0 0 0 0 0 0 0 0 0 0 0 0 0 0 0 0 0 0 0 0 0 0 0 0 0 0 0 0 0 0 0 0 0 0 0 0 0 0 0 0 0 0 0 0 0 0 0 0 0 0 0 0 0 0 0 0 0 0 0 0 0 0 0 0 0 0 0 0 0 0 0 0 0 0 0 0 0 0 0 0 0 0 0 0 0 0 0 0 0 0 0 0 0 0 0 0 0 0 0 0 0 0 0 0 0 0 0 0 0 0 0 0 0 0 0 0 0 0 1879048192 805306624 161508160 671160340 270811177 129 939786242 723658756 604702980 285745161 8200 21630654 1111558760 8913168 50832 1107296260 21106944 266336 185602146 78856608 133 33591460
shrinkage=0.1


Tree=51
num_leaves=15
num_cat=7
split_feature=0 5 8 8 8 5 8 0 0 5 7 8 1 8
split_gain=1.00075e+14 1.0124e+14 3.90929e+14 3.8757e+14 2.97015e+14 2.93457e+14 4.6993e+14 3.55218e+14 2.62797e+14 2.25467e+14 1.72054e+14 1.70508e+14 1.55919e+14 1.38563e+14
threshold=25.500000000000004 2006.5000000000002 0 1 2 1996.5000000000002 3 84.500000000000014 109.50000000000001 1985.5000000000002 4 5 44.500000000000007 6
decision_type=2 2 5 5 5 2 5 2 2 2 1 5 2 5
left_child=-1 3 -3 9 -4 8 7 -7 13 -2 -6 12 -12 -5
right_child=1 2 4 5 10 6 -8 -9 -10 -11 11 -13 -14 -15
leaf_value=-92897.755014436145 126284.99484306469 -134829.9244463552 105703.51783593751 -28735.428838602409 8153.8802977652103 157134.72492859545 25944.763437482892 588647.06263020833 -357001.97459077381 490306.29843750002 -113775.44396462914 -29021.607752227785 -422147.22484375001 2504.6220797290807
leaf_count=115 114 241 215 1705 1555 93 1631 24 21 20 91 1094 20 8244
internal_value=0 7431.5 -149926 50129.8 -48153.4 30023.2 407989 2.26308e+06 -36213.8 1.68074e+06 -137751 -421879 -1.55343e+06 -28754.8
internal_count=15183 15068 3216 11852 2975 11718 1748 117 9970 134 2760 1205 111 9949
cat_boundaries=0 5 9 13 16 17 18 23
cat_threshold=10485760 134217792 37748744 128 8192 0 64 8388608 128 32768 2181038118 268455940 2155872256 2097152 671088768 1614807040 2 4458498 134254720 2197897350 1796214789 75497476 16
shrinkage=0.1


Tree=52
num_leaves=15
num_cat=5
split_feature=4 5 0 8 0 0 1 0 0 2 5 4 0 2
split_gain=9.88442e+13 1.61702e+14 2.11383e+14 8.91635e+13 2.47961e+14 1.73176e+14 1.08856e+14 1.71372e+14 9.66732e+13 8.70985e+13 7.88094e+13 7.82239e+13 7.99151e+13 5.46342e+13
threshold=0 2006.5000000000002 74.500000000000014 1 116.50000000000001 165.50000000000003 118.50000000000001 129.50000000000003 118.50000000000001 2 2006.5000000000002 3 66.500000000000014 4
decision_type=5 2 2 5 2 2 2 2 2 1 2 5 2 1
left_child=1 2 -1 4 10 6 7 8 9 -5 11 12 -2 -13
right_child=3 -3 -4 5 -6 -7 -8 -9 -10 -11 -12 13 -14 -15
leaf_value=72083.353024553566 -33989.269297960069 -2461.1411328125 479620.34125 6325.99859659095 -292867.42046875 245262.45377155175 194189.44202586208 -199083.50654069768 160140.46443256582 -10067.638199563389 -63488.533686302268 -21494.38380971548 -246602.7078480114 49945.34098529238
leaf_count=35 90 80 20 8992 35 29 29 43 38 5054 287 175 22 254
internal_value=0 821961 2.20279e+06 -7646.29 -317832 11435.7 6442.75 2469.64 8555.42 4246.13 -211309 13397.7 -695434 209775
internal_count=15183 135 55 15048 863 14185 14156 14127 14084 14046 828 541 112 429
cat_boundaries=0 1 6 195 196 385
cat_threshold=1342187520 8389760 2228232 1677852672 16810112 8308 0 0 0 0 0 0 0 0 0 0 0 0 0 0 0 0 0 0 0 0 0 0 0 0 0 0 0 0 0 0 0 0 0 0 0 0 0 0 0 0 0 0 0 0 0 0 0 0 0 0 0 0 0 0 0 0 0 0 0 0 0 0 0 0 0 0 0 0 0 0 0 0 0 0 0 0 0 0 0 0 0 0 0 0 0 0 0 0 0 0 0 0 0 0 0 0 0 0 0 0 0 0 0 0 0 0 0 0 0 0 0 0 0 0 0 0 0 0 0 0 0 0 0 0 0 0 0 0 0 0 0 0 0 0 0 0 0 0 0 0 0 0 0 0 0 0 0 0 0 0 0 0 0 0 0 0 0 0 0 0 0 0 0 0 0 0 0 0 0 0 0 0 0 0 0 0 0 0 0 0 0 0 0 0 0 0 0 0 2013265920 65584 0 0 0 0 0 0 0 0 0 0 0 0 0 0 0 0 0 0 0 0 0 0 0 0 0 0 0 0 0 0 0 0 0 0 0 0 0 0 0 0 0 0 0 0 0 0 0 0 0 0 0 0 0 0 0 0 0 0 0 0 0 0 0 0 0 0 0 0 0 0 0 0 0 0 0 0 0 0 0 0 0 0 0 0 0 0 0 0 0 0 0 0 0 0 0 0 0 0 0 0 0 0 0 0 0 0 0 0 0 0 0 0 0 0 0 0 0 0 0 0 0 0 0 0 0 0 0 0 0 0 0 0 0 0 0 0 0 0 0 0 0 0 0 0 0 0 0 0 0 0 0 0 0 0 0 0 0 0 0 0 0 0 0 0 0 0 0 0 0 0 0 0 0 0 0 0 0 0 0 0 0 0 0 0 0 0 0 0 184549376
shrinkage=0.1


Tree=53
num_leaves=15
num_cat=9
split_feature=1 0 4 5 2 8 8 4 0 5 4 8 8 8
split_gain=9.51573e+13 1.44572e+14 9.03111e+13 1.69088e+14 8.77531e+13 1.59627e+14 1.0721e+14 1.70339e+14 4.34358e+14 1.81549e+14 9.41568e+13 2.11409e+14 1.9993e+14 8.68804e+13
threshold=147.00000000000003 165.50000000000003 0 2006.5000000000002 1 2 3 4 77.500000000000014 2007.5000000000002 5 6 7 8
decision_type=2 2 5 2 1 5 5 5 2 2 5 5 5 5
left_child=1 2 3 -1 5 -4 7 8 -6 -9 12 -12 -8 -7
right_child=-2 -3 4 -5 6 13 10 9 -10 -11 11 -13 -14 -15
leaf_value=311997.5283148872 -207798.02894176135 235931.26203425482 -73553.75472854721 22581.891005859376 33541.268113064238 27020.875567016599 -56230.289371484148 17982.400649865544 271969.43087254214 -85558.978025841352 39543.057418199816 -4152.0643279730175 -2582.2235202839147 -20101.685499837615
leaf_count=27 22 26 423 80 540 550 833 1287 89 195 1472 4377 3970 1292
internal_value=0 3271.85 -775.528 874400 -7583.62 -188525 24649.8 229971 662247 43293.2 -16218 68932.8 -119841 -59615
internal_count=15183 15161 15135 107 15028 2265 12763 2111 629 1482 10652 5849 4803 1842
cat_boundaries=0 2 191 196 201 202 203 207 212 217
cat_threshold=1342179328 256 0 0 0 0 0 0 0 0 0 0 0 0 0 0 0 0 0 0 0 0 0 0 0 0 0 0 0 0 0 0 0 0 0 0 0 0 0 0 0 0 0 0 0 0 0 0 0 0 0 0 0 0 0 0 0 0 0 0 0 0 0 0 0 0 0 0 0 0 0 0 0 0 0 0 0 0 0 0 0 0 0 0 0 0 0 0 0 0 0 0 0 0 0 0 0 0 0 0 0 0 0 0 0 0 0 0 0 0 0 0 0 0 0 0 0 0 0 0 0 0 0 0 0 0 0 0 0 0 0 0 0 0 0 0 0 0 0 0 0 0 0 0 0 0 0 0 0 0 0 0 0 0 0 0 0 0 0 0 0 0 0 0 0 0 0 0 0 0 0 0 0 0 0 0 0 0 0 0 0 0 0 0 0 0 0 0 0 0 50331648 1073841156 16777892 1128796172 67109222 4 1073743872 1073885304 13318184 880832676 1 30410306 21235708 17109264 2584790656 721682581 1208418576 10768656 153092224 572522628 131329 8256 69226514 2429577280 134258897 2151876104 2
shrinkage=0.1


Tree=54
num_leaves=15
num_cat=4
split_feature=3 8 0 8 0 0 1 0 5 8 5 1 5 1
split_gain=8.37476e+13 1.71414e+14 3.4754e+14 1.33644e+14 5.19015e+14 4.15864e+14 4.1059e+14 3.40609e+14 1.33505e+14 1.67809e+14 1.24265e+14 1.2243e+14 1.06785e+14 1.70016e+14
threshold=0 1 72.500000000000014 2 102.50000000000001 160.50000000000003 68.500000000000014 132.50000000000003 2011.5000000000002 3 1991.5000000000002 121.50000000000001 1961.5000000000002 42.500000000000007
decision_type=5 5 2 5 2 2 2 2 2 5 2 2 2 2
left_child=1 2 -1 4 8 11 -6 -8 9 12 -11 -5 -2 -14
right_child=3 -3 -4 5 6 -7 7 -9 -10 10 -12 -13 13 -15
leaf_value=-66457.712558480198 269522.92762632982 -12756.108751173675 -529255.33613281255 -571.75094024951466 654237.54090909101 -416830.36334635416 -94115.905803571441 438651.61030505953 -78453.441856971156 507.8509039988636 92285.666964600998 241085.27589285714 200065.97561383931 -159845.18993675595
leaf_count=86 47 1184 20 12481 22 24 28 21 130 886 177 21 35 21
internal_value=0 -242548 -1.40521e+06 22866.4 318579 -9633.98 2.95347e+06 1.34213e+06 176688 283856 156426 -1658.32 1.44364e+06 650993
internal_count=15183 1290 106 13893 1367 12526 71 49 1296 1166 1063 12502 103 56
cat_boundaries=0 1 5 10 14
cat_threshold=2359298 536870912 536903872 268435456 96 671088640 536901824 42219520 536883265 1 0 64 8388608 536870912
shrinkage=0.1


Tree=55
num_leaves=15
num_cat=3
split_feature=0 8 8 4 5 0 5 0 1 5 0 0 5 0
split_gain=8.09219e+13 1.11983e+14 9.28981e+13 2.41277e+14 2.60452e+14 2.11267e+14 2.07045e+14 1.85538e+14 1.58021e+14 1.3857e+14 1.94548e+14 1.27201e+14 1.24155e+14 1.14407e+14
threshold=37.500000000000007 0 1 2 2006.5000000000002 160.50000000000003 2000.5000000000002 104.50000000000001 30.500000000000004 2012.5000000000002 101.50000000000001 125.50000000000001 1956.5000000000002 129.50000000000003
decision_type=2 5 5 5 2 2 2 2 2 2 2 2 2 2
left_child=1 -1 3 7 6 13 -5 12 -8 10 -6 -9 -2 -4
right_child=2 -3 5 4 9 -7 8 11 -10 -11 -12 -13 -14 -15
leaf_value=-49700.793902876874 217980.91235795454 -4122.2489312456701 -313.84729288453724 4437.442758502817 -100840.80454757463 -285011.00889423076 31294.99978885135 414279.15481250006 323556.21786845441 -29014.225655300819 -410877.33168103453 91973.708707682294 44573.731018868064 157757.52677479619
leaf_count=687 44 2408 9912 1064 67 26 37 25 37 107 29 24 670 46
internal_value=0 -144133 37086.6 227505 -29055.3 -3266.25 156862 672961 1.77426e+06 -1.07272e+06 -1.94498e+06 2.56415e+06 552599 4163.48
internal_count=15183 3095 12088 2104 1341 9984 1138 763 74 203 96 49 714 9958
cat_boundaries=0 5 10 12
cat_threshold=537011296 547389442 2147582822 3031048 70 603992100 2686496834 2155948130 402931841 3 1113116290 256
shrinkage=0.1


Tree=56
num_leaves=15
num_cat=5
split_feature=0 8 1 0 5 4 1 0 5 2 3 2 1 0
split_gain=7.63025e+13 7.74385e+13 4.07077e+14 1.54271e+14 1.01412e+14 1.00436e+14 1.05256e+14 1.54346e+14 8.2753e+13 6.78239e+13 5.73956e+13 3.4067e+13 2.64142e+13 2.41803e+13
threshold=25.500000000000004 0 63.500000000000007 165.50000000000003 2009.5000000000002 1 121.50000000000001 129.50000000000003 2006.5000000000002 2 3 4 32.500000000000007 72.500000000000014
decision_type=2 5 2 2 2 5 2 2 2 1 5 1 2 2
left_child=-1 2 4 5 10 8 7 9 -3 -7 13 -12 -13 -2
right_child=1 3 -4 -5 -6 6 -8 -9 -10 -11 11 12 -14 -15
leaf_value=-81136.846817043144 40489.867378162206 259637.70908954326 -472201.30245535722 217780.18034446021 -143379.54776785715 13792.397905118918 190924.44504310345 -171754.3385929988 52246.948004975187 -2776.2990092803457 13978.241353426849 -34110.937421291979 -138483.00244654607 158259.38311434659
leaf_count=115 84 26 21 33 56 3150 29 52 74 11316 100 67 38 22
internal_value=0 6288.82 -428965 18072.7 -195002 13219.1 6007.56 2209.94 965169 8391.83 28060.3 -279543 -656329 593350
internal_count=15183 15068 388 14680 367 14647 14547 14518 100 14466 311 205 105 106
cat_boundaries=0 5 7 196 197 386
cat_threshold=8388608 131080 536870912 16809984 8304 1342179328 256 0 0 0 0 0 0 0 0 0 0 0 0 0 0 0 0 0 0 0 0 0 0 0 0 0 0 0 0 0 0 0 0 0 0 0 0 0 0 0 0 0 0 0 0 0 0 0 0 0 0 0 0 0 0 0 0 0 0 0 0 0 0 0 0 0 0 0 0 0 0 0 0 0 0 0 0 0 0 0 0 0 0 0 0 0 0 0 0 0 0 0 0 0 0 0 0 0 0 0 0 0 0 0 0 0 0 0 0 0 0 0 0 0 0 0 0 0 0 0 0 0 0 0 0 0 0 0 0 0 0 0 0 0 0 0 0 0 0 0 0 0 0 0 0 0 0 0 0 0 0 0 0 0 0 0 0 0 0 0 0 0 0 0 0 0 0 0 0 0 0 0 0 0 0 0 0 0 0 0 0 0 0 0 0 0 0 0 0 1610612736 13960 0 0 0 0 0 0 0 0 0 0 0 0 0 0 0 0 0 0 0 0 0 0 0 0 0 0 0 0 0 0 0 0 0 0 0 0 0 0 0 0 0 0 0 0 0 0 0 0 0 0 0 0 0 0 0 0 0 0 0 0 0 0 0 0 0 0 0 0 0 0 0 0 0 0 0 0 0 0 0 0 0 0 0 0 0 0 0 0 0 0 0 0 0 0 0 0 0 0 0 0 0 0 0 0 0 0 0 0 0 0 0 0 0 0 0 0 0 0 0 0 0 0 0 0 0 0 0 0 0 0 0 0 0 0 0 0 0 0 0 0 0 0 0 0 0 0 0 0 0 0 0 0 0 0 0 0 0 0 0 0 0 0 0 0 0 0 0 0 0 0 0 0 0 0 0 0 0 0 0 0 0 0 0 0 0 0 0 0 1677721600
shrinkage=0.1


Tree=57
num_leaves=15
num_cat=7
split_feature=1 0 2 8 0 0 3 8 0 8 5 0 8 8
split_gain=8.33933e+13 1.45017e+14 7.11996e+13 1.28488e+14 1.18499e+14 9.99833e+13 8.41286e+13 2.29915e+14 1.19263e+14 1.19174e+14 1.68498e+14 1.59783e+14 9.11051e+13 8.04237e+13
threshold=147.00000000000003 165.50000000000003 0 1 93.500000000000014 82.500000000000014 2 3 106.50000000000001 4 2005.5000000000002 75.500000000000014 5 6
decision_type=2 2 1 5 2 2 5 5 2 5 2 2 5 5
left_child=1 2 3 5 13 -1 9 8 -8 10 -4 -12 -9 -5
right_child=-2 -3 6 4 -6 -7 7 12 -10 -11 11 -13 -14 -15
leaf_value=16880.781965698949 -194543.37095170456 236258.83040865386 -16906.664622127118 -69247.772396451721 -167807.23302734375 221623.9701875 54755.451504974371 -22580.435509658146 261191.69174973061 2192.2730247714826 -66888.88880285839 -290137.91813226743 13308.661348795802 -13793.764142871096
leaf_count=519 22 26 1176 319 60 25 800 994 29 7294 126 43 2385 1365
internal_value=0 2925.72 -1127.88 -163253 -295424 258154 27851.4 143628 612383 -28643.5 -301005 -1.23692e+06 27156.9 -247915
internal_count=15183 15161 15135 2288 1744 544 12847 4208 829 8639 1345 169 3379 1684
cat_boundaries=0 189 194 195 200 205 209 214
cat_threshold=0 0 0 0 0 0 0 0 0 0 0 0 0 0 0 0 0 0 0 0 0 0 0 0 0 0 0 0 0 0 0 0 0 0 0 0 0 0 0 0 0 0 0 0 0 0 0 0 0 0 0 0 0 0 0 0 0 0 0 0 0 0 0 0 0 0 0 0 0 0 0 0 0 0 0 0 0 0 0 0 0 0 0 0 0 0 0 0 0 0 0 0 0 0 0 0 0 0 0 0 0 0 0 0 0 0 0 0 0 0 0 0 0 0 0 0 0 0 0 0 0 0 0 0 0 0 0 0 0 0 0 0 0 0 0 0 0 0 0 0 0 0 0 0 0 0 0 0 0 0 0 0 0 0 0 0 0 0 0 0 0 0 0 0 0 0 0 0 0 0 0 0 0 0 0 0 0 0 0 0 0 0 0 0 0 0 0 0 50331648 69226514 2429575488 1208008897 2151810568 2 2477678 1091045396 1073756760 2148016170 243298436 69 564789392 8925312 1075847264 109069321 8428 437568513 2690793472 143835520 2149188106 1107657728 50331812 21495812 67108900 4
shrinkage=0.1


Tree=58
num_leaves=15
num_cat=6
split_feature=1 0 0 4 8 5 8 0 8 5 7 8 5 0
split_gain=6.7544e+13 1.1747e+14 6.96924e+13 6.93762e+13 1.98485e+14 2.69221e+14 1.87753e+14 3.3898e+14 1.03359e+14 9.38518e+13 3.54047e+14 1.75629e+14 8.82904e+13 7.96305e+13
threshold=147.00000000000003 165.50000000000003 141.50000000000003 0 1 2000.5000000000002 2 77.500000000000014 3 2008.5000000000002 4 5 1967.5000000000002 88.500000000000014
decision_type=2 2 2 5 5 2 5 2 5 2 1 5 2 2
left_child=1 2 3 6 5 12 7 -1 -8 11 -11 -6 -5 -7
right_child=-2 -3 -4 4 9 13 8 -9 -10 10 -12 -13 -14 -15
leaf_value=-41939.940974408462 -175089.03829900571 212632.94639423076 -149891.83550907258 79258.08760480184 116749.14279170414 133525.79151278408 47613.397121130904 -314686.95684375003 -10150.160297800207 10136.419124699458 -70259.066952633162 3464.8381026402662 -12432.702506423324 302938.32872178819
leaf_count=514 22 26 31 164 129 121 358 50 1948 1634 824 9034 292 36
internal_value=0 2573.7 -1074.64 1999.59 34844.8 584757 -137652 -649677 -10156.7 5359.44 -168147 51908.9 205438 1.72372e+06
internal_count=15183 15161 15135 15104 12234 613 2870 564 2306 11621 2458 9163 456 157
cat_boundaries=0 1 5 9 13 14 16
cat_threshold=262580 536875008 2105346 142612484 4256 536876064 35914374 2158498308 1073811456 67110992 4096 402528 139265 2 0 134217792
shrinkage=0.1


Tree=59
num_leaves=15
num_cat=6
split_feature=4 8 0 1 0 8 0 5 3 0 3 2 0 0
split_gain=6.94384e+13 2.74204e+14 4.53701e+14 2.23544e+14 2.40604e+14 1.54322e+14 1.8679e+14 2.26001e+14 1.31369e+14 1.07997e+14 1.03113e+14 9.18002e+13 1.62106e+14 1.54716e+14
threshold=0 1 129.50000000000003 97.500000000000014 129.50000000000003 2 94.500000000000014 2004.5000000000002 3 135.50000000000003 4 5 77.500000000000014 91.500000000000014
decision_type=5 5 2 2 2 5 2 2 5 2 5 1 2 2
left_child=1 2 8 5 -5 6 -2 -8 -1 10 -3 12 -10 -13
right_child=3 9 -4 4 -6 -7 7 -9 11 -11 -12 13 -14 -15
leaf_value=-50907.859733323319 18588.751464010445 36166.999073571598 515018.33921130956 6444.0387620192305 -419763.41157407407 -10717.580882034001 465262.47857142857 31287.327776227678 70454.545289620582 -233118.81843750004 -5386.8422827424547 41966.10997060033 252382.86181469299 -204122.46798321759
leaf_count=120 1377 670 21 26 27 7074 21 28 348 20 4892 475 57 27
internal_value=0 76880.8 543705 -59378.9 -2.10681e+06 -46682.4 252390 2.17277e+06 454806 -11579.3 -3259.15 581533 937446 281691
internal_count=15183 6630 1048 8553 53 8500 1426 49 1027 5582 5562 907 405 502
cat_boundaries=0 1 5 9 10 11 200
cat_threshold=1540537474 1881145360 34660992 1216892929 3230077680 255984194 671617088 2189429090 610804745 2834432 48267520 0 0 0 0 0 0 0 0 0 0 0 0 0 0 0 0 0 0 0 0 0 0 0 0 0 0 0 0 0 0 0 0 0 0 0 0 0 0 0 0 0 0 0 0 0 0 0 0 0 0 0 0 0 0 0 0 0 0 0 0 0 0 0 0 0 0 0 0 0 0 0 0 0 0 0 0 0 0 0 0 0 0 0 0 0 0 0 0 0 0 0 0 0 0 0 0 0 0 0 0 0 0 0 0 0 0 0 0 0 0 0 0 0 0 0 0 0 0 0 0 0 0 0 0 0 0 0 0 0 0 0 0 0 0 0 0 0 0 0 0 0 0 0 0 0 0 0 0 0 0 0 0 0 0 0 0 0 0 0 0 0 0 0 0 0 0 0 0 0 0 0 0 0 0 0 0 0 0 0 0 0 0 0 0 0 0 0 0 1677721600
shrinkage=0.1


Tree=60
num_leaves=15
num_cat=6
split_feature=0 8 4 1 8 1 2 0 0 0 5 3 8 0
split_gain=6.42644e+13 8.0677e+13 7.24223e+13 1.15705e+14 1.10104e+14 2.28166e+14 8.09039e+13 1.1298e+14 8.07961e+13 7.67147e+13 7.39774e+13 8.46643e+13 1.96088e+14 2.98045e+14
threshold=38.500000000000007 0 1 81.500000000000014 2 75.500000000000014 3 75.500000000000014 77.500000000000014 94.500000000000014 1955.5000000000002 4 5 106.50000000000001
decision_type=2 5 5 2 5 2 1 2 2 2 2 5 5 2
left_child=1 -1 3 9 5 6 8 -8 -4 -2 -6 -12 13 -13
right_child=2 -3 4 -5 10 -7 7 -9 -10 -11 11 12 -14 -15
leaf_value=14632.134458528446 56214.034871608535 -18469.068097011466 -13862.620367005815 272711.73490767047 60334.172218666892 -364851.03139880951 -43004.394476121473 -230203.65771233977 138881.10863281251 -85282.036385904954 -3179.3389902177532 -14445.946254326607 29740.920791787084 -346072.13638392859
leaf_count=956 258 3124 258 22 235 21 186 39 40 45 6504 844 2623 28
internal_value=0 -107224 39538 497468 25244.5 -409024 -286770 -722415 64243.1 351998 48705.4 35718.8 160986 -248100
internal_count=15183 4080 11103 325 10778 544 523 225 298 303 10234 9999 3495 872
cat_boundaries=0 4 5 10 199 200 204
cat_threshold=1497382913 34757664 2013790345 34615874 1350608896 9437312 33685504 1610612736 16818305 8288 0 0 0 0 0 0 0 0 0 0 0 0 0 0 0 0 0 0 0 0 0 0 0 0 0 0 0 0 0 0 0 0 0 0 0 0 0 0 0 0 0 0 0 0 0 0 0 0 0 0 0 0 0 0 0 0 0 0 0 0 0 0 0 0 0 0 0 0 0 0 0 0 0 0 0 0 0 0 0 0 0 0 0 0 0 0 0 0 0 0 0 0 0 0 0 0 0 0 0 0 0 0 0 0 0 0 0 0 0 0 0 0 0 0 0 0 0 0 0 0 0 0 0 0 0 0 0 0 0 0 0 0 0 0 0 0 0 0 0 0 0 0 0 0 0 0 0 0 0 0 0 0 0 0 0 0 0 0 0 0 0 0 0 0 0 0 0 0 0 0 0 0 0 0 0 0 0 0 0 0 0 0 0 0 0 0 0 0 872415232 37247550 88358918 8405016 169591084 140050538
shrinkage=0.1


Tree=61
num_leaves=15
num_cat=6
split_feature=0 5 8 5 8 5 8 0 0 8 8 5 8 0
split_gain=5.89752e+13 6.22325e+13 3.1837e+14 2.04549e+14 1.68101e+14 1.70093e+14 3.79237e+14 3.15335e+14 1.34661e+14 1.2383e+14 1.17427e+14 1.12019e+14 9.94175e+13 1.89999e+14
threshold=26.500000000000004 2009.5000000000002 0 2012.5000000000002 1 1992.5000000000002 2 129.50000000000003 101.50000000000001 3 4 2011.5000000000002 5 74.500000000000014
decision_type=2 2 5 2 5 2 5 2 2 5 5 2 5 2
left_child=-1 4 11 -4 -2 8 7 -7 9 -6 -5 -3 13 -8
right_child=1 2 3 10 5 6 12 -9 -10 -11 -12 -13 -14 -15
leaf_value=-65303.496274093297 117998.92678626355 -296533.74624023441 -62147.561521484378 105797.92425104578 -24579.686640935819 74701.884630619403 -15228.49259159483 450974.67663043481 -231490.48563701927 2697.4120411440313 6110.9315005878952 -96572.379738715288 9674.1219658530263 -245752.80288194446
leaf_count=137 117 32 450 117 2153 704 174 23 26 7215 1760 225 2005 45
internal_value=0 6051.93 -135184 -15891 35337.3 23513.9 232963 854309 -42256.6 -35949 129210 -1.16921e+06 25894 -598630
internal_count=15183 15046 2584 2327 12462 12345 2951 727 9394 9368 1877 257 2224 219
cat_boundaries=0 5 8 12 17 20 25
cat_threshold=10506240 134217792 570425360 128 8192 64 64 8388608 404877312 2873360528 1799897233 67108864 138444801 2197831812 1528312453 67254404 65 2048 4 4 34605056 260 8 32864 68
shrinkage=0.1


Tree=62
num_leaves=15
